{"learner":{"attributes":{"scikit_learn":"{\"_estimator_type\": \"classifier\"}"},"feature_names":[],"feature_types":[],"gradient_booster":{"model":{"gbtree_model_param":{"num_parallel_tree":"1","num_trees":"400"},"iteration_indptr":[0,1,2,3,4,5,6,7,8,9,10,11,12,13,14,15,16,17,18,19,20,21,22,23,24,25,26,27,28,29,30,31,32,33,34,35,36,37,38,39,40,41,42,43,44,45,46,47,48,49,50,51,52,53,54,55,56,57,58,59,60,61,62,63,64,65,66,67,68,69,70,71,72,73,74,75,76,77,78,79,80,81,82,83,84,85,86,87,88,89,90,91,92,93,94,95,96,97,98,99,100,101,102,103,104,105,106,107,108,109,110,111,112,113,114,115,116,117,118,119,120,121,122,123,124,125,126,127,128,129,130,131,132,133,134,135,136,137,138,139,140,141,142,143,144,145,146,147,148,149,150,151,152,153,154,155,156,157,158,159,160,161,162,163,164,165,166,167,168,169,170,171,172,173,174,175,176,177,178,179,180,181,182,183,184,185,186,187,188,189,190,191,192,193,194,195,196,197,198,199,200,201,202,203,204,205,206,207,208,209,210,211,212,213,214,215,216,217,218,219,220,221,222,223,224,225,226,227,228,229,230,231,232,233,234,235,236,237,238,239,240,241,242,243,244,245,246,247,248,249,250,251,252,253,254,255,256,257,258,259,260,261,262,263,264,265,266,267,268,269,270,271,272,273,274,275,276,277,278,279,280,281,282,283,284,285,286,287,288,289,290,291,292,293,294,295,296,297,298,299,300,301,302,303,304,305,306,307,308,309,310,311,312,313,314,315,316,317,318,319,320,321,322,323,324,325,326,327,328,329,330,331,332,333,334,335,336,337,338,339,340,341,342,343,344,345,346,347,348,349,350,351,352,353,354,355,356,357,358,359,360,361,362,363,364,365,366,367,368,369,370,371,372,373,374,375,376,377,378,379,380,381,382,383,384,385,386,387,388,389,390,391,392,393,394,395,396,397,398,399,400],"tree_info":[0,0,0,0,0,0,0,0,0,0,0,0,0,0,0,0,0,0,0,0,0,0,0,0,0,0,0,0,0,0,0,0,0,0,0,0,0,0,0,0,0,0,0,0,0,0,0,0,0,0,0,0,0,0,0,0,0,0,0,0,0,0,0,0,0,0,0,0,0,0,0,0,0,0,0,0,0,0,0,0,0,0,0,0,0,0,0,0,0,0,0,0,0,0,0,0,0,0,0,0,0,0,0,0,0,0,0,0,0,0,0,0,0,0,0,0,0,0,0,0,0,0,0,0,0,0,0,0,0,0,0,0,0,0,0,0,0,0,0,0,0,0,0,0,0,0,0,0,0,0,0,0,0,0,0,0,0,0,0,0,0,0,0,0,0,0,0,0,0,0,0,0,0,0,0,0,0,0,0,0,0,0,0,0,0,0,0,0,0,0,0,0,0,0,0,0,0,0,0,0,0,0,0,0,0,0,0,0,0,0,0,0,0,0,0,0,0,0,0,0,0,0,0,0,0,0,0,0,0,0,0,0,0,0,0,0,0,0,0,0,0,0,0,0,0,0,0,0,0,0,0,0,0,0,0,0,0,0,0,0,0,0,0,0,0,0,0,0,0,0,0,0,0,0,0,0,0,0,0,0,0,0,0,0,0,0,0,0,0,0,0,0,0,0,0,0,0,0,0,0,0,0,0,0,0,0,0,0,0,0,0,0,0,0,0,0,0,0,0,0,0,0,0,0,0,0,0,0,0,0,0,0,0,0,0,0,0,0,0,0,0,0,0,0,0,0,0,0,0,0,0,0,0,0,0,0,0,0,0,0,0,0,0,0,0,0,0,0,0,0,0,0,0,0,0,0,0,0,0,0,0,0,0,0,0,0,0,0,0,0,0,0,0,0,0,0,0,0,0,0],"trees":[{"base_weights":[-2.0612478E-2,-1.2653144E-1,4.614352E-1,3.3914545E-1,-1.7798808E-1,6.7416614E-1,-1.7083904E-2,2.5410572E-2,-8.423134E-3,-5.1900584E-2,-9.909446E-2,1.065418E0,1.0372494E-1,-1.2493724E-2,1.1405783E-2,2.748972E-2,6.553921E-2,-1.0956823E-2,3.2044396E-2],"categories":[],"categories_nodes":[],"categories_segments":[],"categories_sizes":[],"default_left":[0,0,0,0,0,0,0,0,0,0,0,0,0,0,0,0,0,0,0],"id":0,"left_children":[1,3,5,7,9,11,-1,-1,-1,-1,13,15,17,-1,-1,-1,-1,-1,-1],"loss_changes":[4.102914E0,1.6353769E0,2.705108E0,6.7643476E-1,3.957624E0,2.520451E0,0E0,0E0,0E0,0E0,2.815995E0,1.503377E-1,1.1643199E0,0E0,0E0,0E0,0E0,0E0,0E0],"parents":[2147483647,0,0,1,1,2,2,3,3,4,4,5,5,10,10,11,11,12,12],"right_children":[2,4,6,8,10,12,-1,-1,-1,-1,14,16,18,-1,-1,-1,-1,-1,-1],"split_conditions":[8.5E0,7E0,8E0,6E0,7E0,1.05E1,-1.7083904E-2,2.5410572E-2,-8.423134E-3,-5.1900584E-2,6E0,9E0,1.35E1,-1.2493724E-2,1.1405783E-2,2.748972E-2,6.553921E-2,-1.0956823E-2,3.2044396E-2],"split_indices":[4,8,9,4,9,4,0,0,0,0,4,4,4,0,0,0,0,0,0],"split_type":[0,0,0,0,0,0,0,0,0,0,0,0,0,0,0,0,0,0,0],"sum_hessian":[7.8214386E1,6.472915E1,1.3485239E1,5.884468E0,5.884468E1,1.0788191E1,2.6970477E0,4.413351E0,1.471117E0,3.9229786E0,5.49217E1,5.884468E0,4.9037232E0,3.775867E1,1.716303E1,2.942234E0,2.942234E0,3.4326062E0,1.471117E0],"tree_param":{"num_deleted":"0","num_feature":"15","num_nodes":"19","size_leaf_vector":"1"}},{"base_weights":[3.2700323E-2,-1.673106E-1,3.610068E-1,4.9185306E-1,-2.4234372E-1,-4.563229E-1,4.663955E-1,3.280729E-2,6.688493E-3,-8.048402E-1,-1.3744354E-1,-4.0699024E-2,2.7036914E-4,5.365027E-1,-1.8117068E-2,-5.4049652E-2,8.3610474E-4,-9.714208E-3,1.9267457E-2,2.9673368E-2,-2.2184046E-3],"categories":[],"categories_nodes":[],"categories_segments":[],"categories_sizes":[],"default_left":[0,0,0,0,0,0,0,0,0,0,0,0,0,0,0,0,0,0,0,0,0],"id":1,"left_children":[1,3,5,7,9,11,13,-1,-1,15,17,-1,-1,19,-1,-1,-1,-1,-1,-1,-1],"loss_changes":[5.2298126E0,2.5725677E0,2.8072972E0,2.29882E-1,2.5567172E0,6.5599066E-1,1.7732477E0,0E0,0E0,1.5833497E0,1.2428577E0,0E0,0E0,8.687167E-1,0E0,0E0,0E0,0E0,0E0,0E0,0E0],"parents":[2147483647,0,0,1,1,2,2,3,3,4,4,5,5,6,6,9,9,10,10,13,13],"right_children":[2,4,6,8,10,12,14,-1,-1,16,18,-1,-1,20,-1,-1,-1,-1,-1,-1,-1],"split_conditions":[6.5E0,7E0,7E0,7E0,2E0,8E0,1E1,3.280729E-2,6.688493E-3,8E0,1.4E1,-4.0699024E-2,2.7036914E-4,1.3E1,-1.8117068E-2,-5.4049652E-2,8.3610474E-4,-9.714208E-3,1.9267457E-2,2.9673368E-2,-2.2184046E-3],"split_indices":[4,8,9,9,4,4,9,0,0,8,8,0,0,8,0,0,0,0,0,0,0],"split_type":[0,0,0,0,0,0,0,0,0,0,0,0,0,0,0,0,0,0,0,0,0],"sum_hessian":[7.772417E1,4.860401E1,2.9120157E1,4.3994894E0,4.420452E1,2.9456456E0,2.6174511E1,2.4452133E0,1.9542761E0,5.8992233E0,3.8305298E1,1.2299957E0,1.7156498E0,2.4458097E1,1.7164139E0,4.1788154E0,1.7204081E0,3.5115715E1,3.189582E0,2.2254015E1,2.204083E0],"tree_param":{"num_deleted":"0","num_feature":"15","num_nodes":"21","size_leaf_vector":"1"}},{"base_weights":[1.5720507E-2,-2.0802604E-1,3.857814E-1,4.0771556E-1,-2.8537568E-1,4.58354E-1,-1.7663578E-2,1.9965781E-1,3.0747732E-2,-3.5884073E-1,4.5277148E-1,5.2637386E-1,-1.7517103E-2,2.495255E-2,-3.5552268E-3,-4.5558516E-2,-1.2612541E-2,2.936562E-2,2.7329484E-3,-9.5148515E-3,2.9689986E-2],"categories":[],"categories_nodes":[],"categories_segments":[],"categories_sizes":[],"default_left":[0,0,0,0,0,0,0,0,0,0,0,0,0,0,0,0,0,0,0,0,0],"id":2,"left_children":[1,3,5,7,9,11,-1,13,-1,15,17,19,-1,-1,-1,-1,-1,-1,-1,-1,-1],"loss_changes":[6.492959E0,2.4460685E0,1.7459159E0,1.3035297E-1,2.5509307E0,1.6876187E0,0E0,3.9300722E-1,0E0,2.1613178E0,2.0512325E-1,1.3503733E0,0E0,0E0,0E0,0E0,0E0,0E0,0E0,0E0,0E0],"parents":[2147483647,0,0,1,1,2,2,3,3,4,4,5,5,7,7,9,9,10,10,11,11],"right_children":[2,4,6,8,10,12,-1,14,-1,16,18,20,-1,-1,-1,-1,-1,-1,-1,-1,-1],"split_conditions":[6.5E0,7E0,1.4E1,4.5E0,1.4E1,1E1,-1.7663578E-2,3E0,3.0747732E-2,2E0,5E0,7E0,-1.7517103E-2,2.495255E-2,-3.5552268E-3,-4.5558516E-2,-1.2612541E-2,2.936562E-2,2.7329484E-3,-9.5148515E-3,2.9689986E-2],"split_indices":[4,8,8,4,8,9,0,4,0,4,4,8,0,0,0,0,0,0,0,0,0],"split_type":[0,0,0,0,0,0,0,0,0,0,0,0,0,0,0,0,0,0,0,0,0],"sum_hessian":[7.644829E1,4.7915462E1,2.8532825E1,4.870756E0,4.3044704E1,2.6327374E1,2.2054527E0,3.410351E0,1.460405E0,3.9615757E1,3.428947E0,2.460679E1,1.7205828E0,1.2191516E0,2.1911993E0,5.1873703E0,3.4428387E1,2.2076397E0,1.2213073E0,1.9592769E0,2.2647514E1],"tree_param":{"num_deleted":"0","num_feature":"15","num_nodes":"21","size_leaf_vector":"1"}},{"base_weights":[-3.6625836E-2,-2.0153092E-1,2.4871475E-1,3.9495265E-1,-2.707664E-1,1.847041E-1,3.9214067E-2,5.294015E-2,4.672276E-2,-5.52468E-1,-1.4482543E-1,3.0129576E-1,-1.7029257E-2,1.704787E-2,-2.0866357E-2,-3.491529E-2,5.389724E-3,7.882324E-3,-2.2176048E-2,5.677461E-3,3.2101855E-2],"categories":[],"categories_nodes":[],"categories_segments":[],"categories_sizes":[],"default_left":[0,0,0,0,0,0,0,0,0,0,0,0,0,0,0,0,0,0,0,0,0],"id":3,"left_children":[1,3,5,7,9,11,-1,13,-1,15,17,19,-1,-1,-1,-1,-1,-1,-1,-1,-1],"loss_changes":[3.900427E0,2.271354E0,8.979038E-1,1.0313191E0,1.6070435E0,1.8467324E0,0E0,7.714186E-1,0E0,1.455708E0,3.1612716E0,1.451947E0,0E0,0E0,0E0,0E0,0E0,0E0,0E0,0E0,0E0],"parents":[2147483647,0,0,1,1,2,2,3,3,4,4,5,5,7,7,9,9,10,10,11,11],"right_children":[2,4,6,8,10,12,-1,14,-1,16,18,20,-1,-1,-1,-1,-1,-1,-1,-1,-1],"split_conditions":[6.5E0,7E0,1.35E1,5E0,3E0,1.05E1,3.9214067E-2,3.5E0,4.672276E-2,8E0,4E0,8.5E0,-1.7029257E-2,1.704787E-2,-2.0866357E-2,-3.491529E-2,5.389724E-3,7.882324E-3,-2.2176048E-2,5.677461E-3,3.2101855E-2],"split_indices":[4,8,4,4,4,4,0,4,0,8,4,4,0,0,0,0,0,0,0,0,0],"split_type":[0,0,0,0,0,0,0,0,0,0,0,0,0,0,0,0,0,0,0,0,0],"sum_hessian":[8.082713E1,5.140987E1,2.9417265E1,4.8574095E0,4.655246E1,2.7477985E1,1.9392796E0,3.644892E0,1.2125171E0,1.3336035E1,3.3216427E1,2.283583E1,4.642155E0,2.4309916E0,1.2139004E0,1.0876116E1,2.4599195E0,1.673851E1,1.6477915E1,1.5582953E1,7.252877E0],"tree_param":{"num_deleted":"0","num_feature":"15","num_nodes":"21","size_leaf_vector":"1"}},{"base_weights":[2.4038346E-2,-1.3236633E-1,2.8281167E-1,3.424093E-2,-2.2623144E-1,-4.88107E-1,3.6515704E-1,-9.3169376E-2,-4.5260936E-1,4.238064E-3,-4.2183675E-2,4.4779631E-1,-2.534448E-2,-2.3185633E-2,9.715041E-3,-3.026384E-2,2.4478799E-2,2.520879E-2,-8.867431E-3],"categories":[],"categories_nodes":[],"categories_segments":[],"categories_sizes":[],"default_left":[0,0,0,0,0,0,0,0,0,0,0,0,0,0,0,0,0,0,0],"id":4,"left_children":[1,3,5,-1,7,9,11,13,15,-1,-1,17,-1,-1,-1,-1,-1,-1,-1],"loss_changes":[3.3681226E0,4.14154E0,2.1664863E0,0E0,1.384728E0,7.743615E-1,2.3074794E0,3.4021568E0,2.7814493E0,0E0,0E0,1.0375686E0,0E0,0E0,0E0,0E0,0E0,0E0,0E0],"parents":[2147483647,0,0,1,1,2,2,4,4,5,5,6,6,7,7,8,8,11,11],"right_children":[2,4,6,-1,8,10,12,14,16,-1,-1,18,-1,-1,-1,-1,-1,-1,-1],"split_conditions":[6.5E0,7E0,7E0,3.424093E-2,4E0,7E0,1E1,3E0,9E0,4.238064E-3,-4.2183675E-2,1.3E1,-2.534448E-2,-2.3185633E-2,9.715041E-3,-3.026384E-2,2.4478799E-2,2.520879E-2,-8.867431E-3],"split_indices":[4,8,9,0,4,8,9,4,8,0,0,8,0,0,0,0,0,0,0],"split_type":[0,0,0,0,0,0,0,0,0,0,0,0,0,0,0,0,0,0,0],"sum_hessian":[8.1293335E1,5.0973206E1,3.032013E1,4.603097E0,4.637011E1,2.450543E0,2.7869587E1,3.0093246E1,1.6276861E1,1.2301738E0,1.2203691E0,2.5901533E1,1.968053E0,1.2879173E1,1.7214075E1,1.4314919E1,1.9619417E0,2.3936314E1,1.9652201E0],"tree_param":{"num_deleted":"0","num_feature":"15","num_nodes":"19","size_leaf_vector":"1"}},{"base_weights":[1.2260042E-2,-3.4144998E-1,5.9851214E-2,1.9718824E-2,-4.7077905E-2,9.5321536E-2,-2.7052749E-2,7.253959E-2,1.5942851E-2,4.4980156E-3,-1.7790487E-2],"categories":[],"categories_nodes":[],"categories_segments":[],"categories_sizes":[],"default_left":[0,0,0,0,0,0,0,0,0,0,0],"id":5,"left_children":[1,3,5,-1,-1,7,-1,9,-1,-1,-1],"loss_changes":[1.3929925E0,4.7070827E0,1.6015204E0,0E0,0E0,3.3088303E-1,0E0,5.124261E-1,0E0,0E0,0E0],"parents":[2147483647,0,0,1,1,2,2,5,5,7,7],"right_children":[2,4,6,-1,-1,8,-1,10,-1,-1,-1],"split_conditions":[7E0,7E0,1.1E1,1.9718824E-2,-4.7077905E-2,1.4E1,-2.7052749E-2,1E1,1.5942851E-2,4.4980156E-3,-1.7790487E-2],"split_indices":[9,8,9,0,0,8,0,8,0,0,0],"split_type":[0,0,0,0,0,0,0,0,0,0,0],"sum_hessian":[8.0537315E1,8.81883E0,7.171849E1,4.1154585E0,4.703371E0,6.851552E1,3.2029676E0,6.3380512E1,5.135008E0,6.166271E1,1.717803E0],"tree_param":{"num_deleted":"0","num_feature":"15","num_nodes":"11","size_leaf_vector":"1"}},{"base_weights":[-3.0484388E-2,-1.6547506E-1,2.2097073E-1,2.9218942E-1,-2.1417043E-1,-4.5184356E-1,3.010578E-1,-7.42188E-2,4.4536334E-2,-4.1456588E-2,-1.5605064E-1,-3.919847E-2,4.203294E-3,3.8424718E-1,-2.4068153E-2,2.2853531E-2,-2.097019E-2,-1.7264275E-2,-3.6851165E-3,-2.0688761E-2,2.2198295E-2],"categories":[],"categories_nodes":[],"categories_segments":[],"categories_sizes":[],"default_left":[0,0,0,0,0,0,0,0,0,0,0,0,0,0,0,0,0,0,0,0,0],"id":6,"left_children":[1,3,5,7,9,11,13,15,-1,-1,17,-1,-1,19,-1,-1,-1,-1,-1,-1,-1],"loss_changes":[2.795207E0,1.2538441E0,1.6887952E0,1.2862173E0,1.6180036E0,6.8266654E-1,1.900177E0,9.938533E-1,0E0,0E0,6.898202E-1,0E0,0E0,1.3453555E0,0E0,0E0,0E0,0E0,0E0,0E0,0E0],"parents":[2147483647,0,0,1,1,2,2,3,3,4,4,5,5,6,6,7,7,10,10,13,13],"right_children":[2,4,6,8,10,12,14,16,-1,-1,18,-1,-1,20,-1,-1,-1,-1,-1,-1,-1],"split_conditions":[6.5E0,7E0,7E0,5E0,7E0,8E0,1E1,3E0,4.4536334E-2,-4.1456588E-2,3E0,-3.919847E-2,4.203294E-3,7E0,-2.4068153E-2,2.2853531E-2,-2.097019E-2,-1.7264275E-2,-3.6851165E-3,-2.0688761E-2,2.2198295E-2],"split_indices":[4,8,9,4,9,4,9,4,0,0,4,0,0,8,0,0,0,0,0,0,0],"split_type":[0,0,0,0,0,0,0,0,0,0,0,0,0,0,0,0,0,0,0,0,0],"sum_hessian":[8.027016E1,5.2453213E1,2.7816948E1,4.5634236E0,4.788979E1,2.4651587E0,2.535179E1,3.3739703E0,1.1894532E0,2.9897325E0,4.4900055E1,1.236173E0,1.2289855E0,2.3375349E1,1.9764391E0,1.2011284E0,2.172842E0,1.2646241E1,3.2253815E1,1.2146907E0,2.216066E1],"tree_param":{"num_deleted":"0","num_feature":"15","num_nodes":"21","size_leaf_vector":"1"}},{"base_weights":[7.492115E-2,-8.890861E-2,3.416997E-1,3.9941868E-1,-1.51463E-1,-4.1382977E-1,4.3664476E-1,1.057583E-1,4.3574385E-2,-3.8508663E-1,-4.5119226E-2,-3.803753E-2,1.1997826E-3,-2.0083617E-2,4.899471E-1,2.2287723E-2,-6.3399225E-3,-2.6697174E-2,2.1630919E-2,1.0101459E-2,-1.5931038E-2,2.7878275E-2,-1.5350196E-2],"categories":[],"categories_nodes":[],"categories_segments":[],"categories_sizes":[],"default_left":[0,0,0,0,0,0,0,0,0,0,0,0,0,0,0,0,0,0,0,0,0,0,0],"id":7,"left_children":[1,3,5,7,9,11,13,15,-1,17,19,-1,-1,-1,21,-1,-1,-1,-1,-1,-1,-1,-1],"loss_changes":[3.55449E0,1.6106963E0,2.3961015E0,7.4480534E-1,1.1182745E0,6.199244E-1,1.4444957E0,4.408119E-1,0E0,1.9552658E0,2.2642422E0,0E0,0E0,0E0,1.6102009E0,0E0,0E0,0E0,0E0,0E0,0E0,0E0,0E0],"parents":[2147483647,0,0,1,1,2,2,3,3,4,4,5,5,6,6,7,7,9,9,10,10,14,14],"right_children":[2,4,6,8,10,12,14,16,-1,18,20,-1,-1,-1,22,-1,-1,-1,-1,-1,-1,-1,-1],"split_conditions":[6.5E0,7E0,7E0,5E0,3E0,8E0,7E0,3E0,4.3574385E-2,8E0,4E0,-3.803753E-2,1.1997826E-3,-2.0083617E-2,1E1,2.2287723E-2,-6.3399225E-3,-2.6697174E-2,2.1630919E-2,1.0101459E-2,-1.5931038E-2,2.7878275E-2,-1.5350196E-2],"split_indices":[4,8,9,4,4,4,8,4,0,9,4,0,0,0,9,0,0,0,0,0,0,0,0],"split_type":[0,0,0,0,0,0,0,0,0,0,0,0,0,0,0,0,0,0,0,0,0,0,0],"sum_hessian":[7.963168E1,4.974798E1,2.9883701E1,5.0375433E0,4.4710438E1,2.9612002E0,2.6922503E1,3.860235E0,1.1773083E0,1.3165774E1,3.1544662E1,1.2406095E0,1.7205907E0,1.2187519E0,2.570375E1,1.1955682E0,2.6646667E0,1.1431737E1,1.734037E0,1.6707935E1,1.4836726E1,2.3970331E1,1.7334188E0],"tree_param":{"num_deleted":"0","num_feature":"15","num_nodes":"23","size_leaf_vector":"1"}},{"base_weights":[4.086374E-2,-5.1948458E-2,6.602105E-1,-8.504648E-3,-7.3760605E-1,4.3722693E-2,3.113716E-1,-2.2145054E-1,1.3255116E-1,-1.5856963E-2,-4.5112733E-2,-1.0101035E-2,3.2187536E-2,-6.912812E-3,-4.306411E-2,3.5329342E-2,1.3434717E-3],"categories":[],"categories_nodes":[],"categories_segments":[],"categories_sizes":[],"default_left":[0,0,0,0,0,0,0,0,0,0,0,0,0,0,0,0,0],"id":8,"left_children":[1,3,5,7,9,-1,11,13,15,-1,-1,-1,-1,-1,-1,-1,-1],"loss_changes":[4.6661215E0,2.1087399E0,5.1799774E-1,2.0654016E0,5.9440136E-3,0E0,1.081593E0,1.3385683E0,2.49257E0,0E0,0E0,0E0,0E0,0E0,0E0,0E0,0E0],"parents":[2147483647,0,0,1,1,2,2,3,3,4,4,6,6,7,7,8,8],"right_children":[2,4,6,8,10,-1,12,14,16,-1,-1,-1,-1,-1,-1,-1,-1],"split_conditions":[9E0,1.1E1,1.1E1,3.5E0,5E0,4.3722693E-2,1.3E1,1.1E1,4E0,-1.5856963E-2,-4.5112733E-2,-1.0101035E-2,3.2187536E-2,-6.912812E-3,-4.306411E-2,3.5329342E-2,1.3434717E-3],"split_indices":[4,9,4,4,4,0,4,8,4,0,0,0,0,0,0,0,0],"split_type":[0,0,0,0,0,0,0,0,0,0,0,0,0,0,0,0,0],"sum_hessian":[7.9577385E1,7.000318E1,9.574203E0,6.6784096E1,3.2190897E0,4.997918E0,4.576284E0,2.6383743E1,4.040035E1,1.7292426E0,1.4898472E0,1.9525604E0,2.6237235E0,2.4424078E1,1.9596655E0,5.397352E0,3.5003E1],"tree_param":{"num_deleted":"0","num_feature":"15","num_nodes":"17","size_leaf_vector":"1"}},{"base_weights":[-4.347681E-2,-1.9043623E-2,-2.3919452E-2,-2.6006672E-1,1.4941385E-2,1.9195681E-2,-4.0608507E-2,-4.376325E-3,1.0200236E-2,1.0850648E-3,-1.1976688E-2],"categories":[],"categories_nodes":[],"categories_segments":[],"categories_sizes":[],"default_left":[0,0,0,0,0,0,0,0,0,0,0],"id":9,"left_children":[1,3,-1,5,7,-1,-1,9,-1,-1,-1],"loss_changes":[8.4348154E-1,6.3467056E-1,0E0,3.7146504E0,2.508435E-1,0E0,0E0,3.9197564E-1,0E0,0E0,0E0],"parents":[2147483647,0,0,1,1,3,3,4,4,7,7],"right_children":[2,4,-1,6,8,-1,-1,10,-1,-1,-1],"split_conditions":[1.1E1,7E0,-2.3919452E-2,7E0,1.1E1,1.9195681E-2,-4.0608507E-2,8E0,1.0200236E-2,1.0850648E-3,-1.1976688E-2],"split_indices":[9,9,0,8,8,0,0,8,0,0,0],"split_type":[0,0,0,0,0,0,0,0,0,0,0],"sum_hessian":[7.923419E1,7.600789E1,3.226304E0,8.5708275E0,6.743706E1,4.0968475E0,4.47398E0,6.2071686E1,5.3653755E0,5.6692524E1,5.379163E0],"tree_param":{"num_deleted":"0","num_feature":"15","num_nodes":"11","size_leaf_vector":"1"}},{"base_weights":[1.0293849E-2,-8.8219784E-2,1.7660038E-1,-1.9058125E-2,-2.0820329E-1,2.4776791E-1,-3.1655233E-2,-1.3694428E-1,2.1140967E-2,-2.5556823E-2,-1.3220993E-1,-3.9787325E-1,3.375232E-1,-9.513259E-3,1.0085578E-2,-2.949925E-3,-1.3883795E-2,-3.6846902E-2,1.4031109E-3,2.1744205E-2,5.115773E-3],"categories":[],"categories_nodes":[],"categories_segments":[],"categories_sizes":[],"default_left":[0,0,0,0,0,0,0,0,0,0,0,0,0,0,0,0,0,0,0,0,0],"id":10,"left_children":[1,3,5,7,9,11,-1,13,-1,-1,15,17,19,-1,-1,-1,-1,-1,-1,-1,-1],"loss_changes":[1.3418711E0,4.2343572E-1,1.9114106E0,1.8171749E0,3.63658E-1,1.7978308E0,0E0,5.334357E-1,0E0,0E0,1.5746954E-1,5.929599E-1,5.4504347E-1,0E0,0E0,0E0,0E0,0E0,0E0,0E0,0E0],"parents":[2147483647,0,0,1,1,2,2,3,3,4,4,5,5,7,7,10,10,11,11,12,12],"right_children":[2,4,6,8,10,12,-1,14,-1,-1,16,18,20,-1,-1,-1,-1,-1,-1,-1,-1],"split_conditions":[6.5E0,4E0,1E1,3.5E0,7E0,7E0,-3.1655233E-2,8E0,2.1140967E-2,-2.5556823E-2,6E0,8E0,9.5E0,-9.513259E-3,1.0085578E-2,-2.949925E-3,-1.3883795E-2,-3.6846902E-2,1.4031109E-3,2.1744205E-2,5.115773E-3],"split_indices":[4,4,9,4,9,9,0,9,0,0,4,4,4,0,0,0,0,0,0,0,0],"split_type":[0,0,0,0,0,0,0,0,0,0,0,0,0,0,0,0,0,0,0,0,0],"sum_hessian":[7.995307E1,5.0505234E1,2.9447836E1,3.2772903E1,1.773233E1,2.7706615E1,1.7412198E0,2.6415688E1,6.357217E0,2.4078445E0,1.5324485E1,2.962615E0,2.4744001E1,2.320091E1,3.2147763E0,1.1128976E1,4.195509E0,1.2429805E0,1.7196347E0,1.689968E1,7.844321E0],"tree_param":{"num_deleted":"0","num_feature":"15","num_nodes":"21","size_leaf_vector":"1"}},{"base_weights":[-2.2355782E-2,-1.3655978E-1,1.8251538E-1,5.582763E-1,-2.241697E-1,-7.0910144E-1,2.9350838E-1,2.389844E-1,4.6938803E-2,-1.1673478E-1,-4.0437725E-1,-5.7962324E-2,3.2509652E-3,3.939492E-1,-2.6987314E-2,2.2028621E-2,2.005915E-3,-1.26530025E-2,2.0589942E-2,-3.12712E-2,2.0533787E-2,2.302949E-2,-1.2004906E-2],"categories":[],"categories_nodes":[],"categories_segments":[],"categories_sizes":[],"default_left":[0,0,0,0,0,0,0,0,0,0,0,0,0,0,0,0,0,0,0,0,0,0,0],"id":11,"left_children":[1,3,5,7,9,11,13,15,-1,17,19,-1,-1,21,-1,-1,-1,-1,-1,-1,-1,-1,-1],"loss_changes":[1.8715839E0,3.2449205E0,3.0461578E0,5.0760746E-1,8.4772587E-1,1.2836725E0,2.406234E0,1.6743246E-1,0E0,2.2921073E0,3.2942522E0,0E0,0E0,1.1233435E0,0E0,0E0,0E0,0E0,0E0,0E0,0E0,0E0,0E0],"parents":[2147483647,0,0,1,1,2,2,3,3,4,4,5,5,6,6,7,7,9,9,10,10,13,13],"right_children":[2,4,6,8,10,12,14,16,-1,18,20,-1,-1,22,-1,-1,-1,-1,-1,-1,-1,-1,-1],"split_conditions":[6.5E0,7E0,7E0,4.5E0,4E0,8.5E0,1E1,3E0,4.6938803E-2,3.5E0,8E0,-5.7962324E-2,3.2509652E-3,1.3E1,-2.6987314E-2,2.2028621E-2,2.005915E-3,-1.26530025E-2,2.0589942E-2,-3.12712E-2,2.0533787E-2,2.302949E-2,-1.2004906E-2],"split_indices":[4,8,9,4,4,4,9,4,0,4,8,0,0,8,0,0,0,0,0,0,0,0,0],"split_type":[0,0,0,0,0,0,0,0,0,0,0,0,0,0,0,0,0,0,0,0,0,0,0],"sum_hessian":[7.792684E1,5.024921E1,2.7677633E1,5.0248365E0,4.5224373E1,2.4674752E0,2.5210157E1,3.61741E0,1.4074262E0,2.936533E1,1.5859044E1,1.2456428E0,1.2218323E0,2.2968716E1,2.2414417E0,1.1928307E0,2.4245794E0,2.375848E1,5.6068482E0,1.2658618E1,3.2004259E0,2.1031776E1,1.9369395E0],"tree_param":{"num_deleted":"0","num_feature":"15","num_nodes":"23","size_leaf_vector":"1"}},{"base_weights":[-4.6487354E-2,-1.5319325E-1,1.5074E-1,-2.0417269E-1,3.730398E-1,2.1547577E-1,-3.44766E-2,-8.953187E-2,-3.9982456E-1,-6.4889127E-3,3.1400688E-2,3.1959993E-1,-1.772001E-1,-1.4189884E-2,3.3466653E-3,8.494262E-3,-2.4565538E-2,9.278592E-3,3.5393335E-2,-3.0725926E-2,2.3068056E-2],"categories":[],"categories_nodes":[],"categories_segments":[],"categories_sizes":[],"default_left":[0,0,0,0,0,0,0,0,0,0,0,0,0,0,0,0,0,0,0,0,0],"id":12,"left_children":[1,3,5,7,9,11,-1,13,15,-1,-1,17,19,-1,-1,-1,-1,-1,-1,-1,-1],"loss_changes":[1.6784554E0,1.4587736E0,1.6781408E0,1.0325807E0,7.104205E-1,1.1552573E0,0E0,9.7107184E-1,9.8565793E-1,0E0,0E0,9.924042E-1,2.0358202E0,0E0,0E0,0E0,0E0,0E0,0E0,0E0,0E0],"parents":[2147483647,0,0,1,1,2,2,3,3,4,4,5,5,7,7,8,8,11,11,12,12],"right_children":[2,4,6,8,10,12,-1,14,16,-1,-1,18,20,-1,-1,-1,-1,-1,-1,-1,-1],"split_conditions":[6.5E0,1.4E1,1.1E1,4E0,3.5E0,1.05E1,-3.44766E-2,3E0,7E0,-6.4889127E-3,3.1400688E-2,9E0,1.3E1,-1.4189884E-2,3.3466653E-3,8.494262E-3,-2.4565538E-2,9.278592E-3,3.5393335E-2,-3.0725926E-2,2.3068056E-2],"split_indices":[4,8,9,4,4,4,0,4,8,0,0,4,4,0,0,0,0,0,0,0,0],"split_type":[0,0,0,0,0,0,0,0,0,0,0,0,0,0,0,0,0,0,0,0,0],"sum_hessian":[7.765706E1,5.053784E1,2.7119217E1,4.6632294E1,3.905547E0,2.586974E1,1.2494779E0,3.0322594E1,1.63097E1,1.4793087E0,2.426238E0,2.05948E1,5.2749376E0,1.3164212E1,1.715838E1,2.1381152E0,1.4171585E1,1.6408577E1,4.186225E0,3.153153E0,2.1217847E0],"tree_param":{"num_deleted":"0","num_feature":"15","num_nodes":"21","size_leaf_vector":"1"}},{"base_weights":[2.5785021E-2,6.43764E-2,-3.2834265E-2,8.347861E-2,-9.204876E-2,2.1308464E-1,6.4829305E-2,-8.255094E-3,-2.26328E-3,2.7658401E-2,-1.4190339E-2,-2.967298E-2,5.649228E-3],"categories":[],"categories_nodes":[],"categories_segments":[],"categories_sizes":[],"default_left":[0,0,0,0,0,0,0,0,0,0,0,0,0],"id":13,"left_children":[1,3,-1,5,7,9,11,-1,-1,-1,-1,-1,-1],"loss_changes":[2.0831025E0,2.2955146E-1,0E0,1.4739183E-1,2.1768562E-2,1.5008256E0,1.9608968E0,0E0,0E0,0E0,0E0,0E0,0E0],"parents":[2147483647,0,0,1,1,3,3,4,4,5,5,6,6],"right_children":[2,4,-1,6,8,10,12,-1,-1,-1,-1,-1,-1],"split_conditions":[1.1E1,1E1,-3.2834265E-2,7E0,1.4E1,7E0,7E0,-8.255094E-3,-2.26328E-3,2.7658401E-2,-1.4190339E-2,-2.967298E-2,5.649228E-3],"split_indices":[9,8,0,8,8,9,9,0,0,0,0,0,0],"split_type":[0,0,0,0,0,0,0,0,0,0,0,0,0],"sum_hessian":[7.6487595E1,7.325117E1,3.236433E0,6.569501E1,7.556157E0,6.952402E0,5.8742603E1,1.962529E0,5.5936284E0,4.0602326E0,2.8921695E0,3.2323306E0,5.5510273E1],"tree_param":{"num_deleted":"0","num_feature":"15","num_nodes":"13","size_leaf_vector":"1"}},{"base_weights":[4.944067E-2,-1.0549434E-1,2.2711536E-1,-1.8518469E-1,5.076865E-1,-4.3546468E-1,3.133816E-1,2.7594346E-1,-2.5455815E-1,4.156679E-2,-1.4468369E-2,1.1503389E-2,-4.03253E-2,4.231649E-1,-3.0413407E-1,1.8837338E-2,2.7401913E-3,-7.1147205E-3,-3.3564042E-2,2.3711523E-2,6.7864927E-3,-3.5147153E-2,2.4811244E-3],"categories":[],"categories_nodes":[],"categories_segments":[],"categories_sizes":[],"default_left":[0,0,0,0,0,0,0,0,0,0,0,0,0,0,0,0,0,0,0,0,0,0,0],"id":14,"left_children":[1,3,5,7,9,11,13,15,17,-1,-1,-1,-1,19,21,-1,-1,-1,-1,-1,-1,-1,-1],"loss_changes":[2.1975167E0,2.1883957E0,2.256873E0,1.3071069E0,1.581185E0,1.3442007E0,2.3933244E0,1.02757245E-1,1.5010884E0,0E0,0E0,0E0,0E0,3.5807896E-1,8.283523E-1,0E0,0E0,0E0,0E0,0E0,0E0,0E0,0E0],"parents":[2147483647,0,0,1,1,2,2,3,3,4,4,5,5,6,6,7,7,8,8,13,13,14,14],"right_children":[2,4,6,8,10,12,14,16,18,-1,-1,-1,-1,20,22,-1,-1,-1,-1,-1,-1,-1,-1],"split_conditions":[5.5E0,8E0,7E0,7E0,1.1E1,7E0,8E0,4E0,4E0,4.156679E-2,-1.4468369E-2,1.1503389E-2,-4.03253E-2,1.05E1,7E0,1.8837338E-2,2.7401913E-3,-7.1147205E-3,-3.3564042E-2,2.3711523E-2,6.7864927E-3,-3.5147153E-2,2.4811244E-3],"split_indices":[4,9,9,8,9,8,9,4,4,0,0,0,0,4,4,0,0,0,0,0,0,0,0],"split_type":[0,0,0,0,0,0,0,0,0,0,0,0,0,0,0,0,0,0,0,0,0,0,0],"sum_hessian":[7.795797E1,4.186089E1,3.609708E1,3.766399E1,4.196902E0,3.6920283E0,3.2405052E1,4.535917E0,3.312807E1,2.9542837E0,1.2426182E0,1.4575601E0,2.2344682E0,2.7780842E1,4.624208E0,2.6323423E0,1.9035746E0,2.7154263E1,5.9738097E0,2.3038046E1,4.742796E0,1.7096949E0,2.914513E0],"tree_param":{"num_deleted":"0","num_feature":"15","num_nodes":"23","size_leaf_vector":"1"}},{"base_weights":[-6.1756324E-2,-1.9143122E-1,1.7117526E-1,1.5960751E-2,-2.4927357E-1,2.2980163E-1,-1.9144455E-2,-1.6216719E-1,-4.0123096E-1,3.5206982E-1,-7.803391E-2,-1.3873755E-2,1.5045394E-2,-3.0890891E-2,1.9541886E-2,1.1426608E-2,5.0339203E-2,-1.8858723E-2,1.9682666E-2],"categories":[],"categories_nodes":[],"categories_segments":[],"categories_sizes":[],"default_left":[0,0,0,0,0,0,0,0,0,0,0,0,0,0,0,0,0,0,0],"id":15,"left_children":[1,3,5,-1,7,9,-1,11,13,15,17,-1,-1,-1,-1,-1,-1,-1,-1],"loss_changes":[2.4680858E0,1.6232997E0,1.041717E0,0E0,5.63771E-1,1.0503566E0,0E0,1.7855576E0,3.0946941E0,1.3578162E0,1.3540697E0,0E0,0E0,0E0,0E0,0E0,0E0,0E0,0E0],"parents":[2147483647,0,0,1,1,2,2,4,4,5,5,7,7,8,8,9,9,10,10],"right_children":[2,4,6,-1,8,10,-1,12,14,16,18,-1,-1,-1,-1,-1,-1,-1,-1],"split_conditions":[6.5E0,7E0,1.4E1,1.5960751E-2,4E0,9.5E0,-1.9144455E-2,3.5E0,8E0,9E0,1.25E1,-1.3873755E-2,1.5045394E-2,-3.0890891E-2,1.9541886E-2,1.1426608E-2,5.0339203E-2,-1.8858723E-2,1.9682666E-2],"split_indices":[4,8,8,0,4,4,0,4,8,4,4,0,0,0,0,0,0,0,0],"split_type":[0,0,0,0,0,0,0,0,0,0,0,0,0,0,0,0,0,0,0],"sum_hessian":[7.962529E1,5.126424E1,2.8361052E1,4.756245E0,4.6507996E1,2.617652E1,2.184532E0,3.0876106E1,1.5631888E1,1.8632317E1,7.5442033E0,2.5041462E1,5.834645E0,1.2448036E1,3.1838527E0,1.6809582E1,1.8227338E0,4.7390833E0,2.80512E0],"tree_param":{"num_deleted":"0","num_feature":"15","num_nodes":"19","size_leaf_vector":"1"}},{"base_weights":[8.73453E-3,-1.2949777E-1,2.367152E-1,-1.6810732E-1,2.0034377E-1,2.9694E-1,-1.9106206E-2,-4.5590943E-1,-4.348908E-2,2.9110864E-2,-2.4419975E-2,3.656726E-1,-1.8644666E-2,1.0774109E-2,-2.7313074E-2,1.0084882E-2,-1.4038621E-2,8.205505E-3,3.373253E-2,-2.613769E-2,1.896846E-2],"categories":[],"categories_nodes":[],"categories_segments":[],"categories_sizes":[],"default_left":[0,0,0,0,0,0,0,0,0,0,0,0,0,0,0,0,0,0,0,0,0],"id":16,"left_children":[1,3,5,7,9,11,-1,13,15,-1,-1,17,19,-1,-1,-1,-1,-1,-1,-1,-1],"loss_changes":[2.4053957E0,6.3932216E-1,1.1867251E0,1.5265988E0,1.7150706E0,5.882647E-1,0E0,9.0164447E-1,1.871483E0,0E0,0E0,1.2631695E0,1.3511188E0,0E0,0E0,0E0,0E0,0E0,0E0,0E0,0E0],"parents":[2147483647,0,0,1,1,2,2,3,3,4,4,5,5,7,7,8,8,11,11,12,12],"right_children":[2,4,6,8,10,12,-1,14,16,-1,-1,18,20,-1,-1,-1,-1,-1,-1,-1,-1],"split_conditions":[6.5E0,8E0,1E1,3E0,4.5E0,1.1E1,-1.9106206E-2,1E0,4E0,2.9110864E-2,-2.4419975E-2,8.5E0,1.3E1,1.0774109E-2,-2.7313074E-2,1.0084882E-2,-1.4038621E-2,8.205505E-3,3.373253E-2,-2.613769E-2,1.896846E-2],"split_indices":[4,9,9,4,4,4,0,4,4,0,0,4,4,0,0,0,0,0,0,0,0],"split_type":[0,0,0,0,0,0,0,0,0,0,0,0,0,0,0,0,0,0,0,0,0],"sum_hessian":[7.435444E1,4.655722E1,2.7797216E1,4.21175E1,4.43972E0,2.5805973E1,1.9912443E0,1.1923073E1,3.0194427E1,2.9556358E0,1.4840841E0,2.1060417E1,4.745556E0,1.249954E0,1.0673119E1,1.4923662E1,1.5270765E1,1.3672359E1,7.388057E0,1.9554507E0,2.790105E0],"tree_param":{"num_deleted":"0","num_feature":"15","num_nodes":"21","size_leaf_vector":"1"}},{"base_weights":[-7.392379E-3,-7.374397E-2,1.0667245E-1,-1.09088086E-1,3.333184E-1,2.0999925E-1,-2.7562204E-1,-1.6500186E-2,-2.7023944E-1,2.2767218E-2,1.0001798E-3,8.185849E-2,6.4652514E-1,-2.4267418E-2,1.0939738E-2,-5.4750177E-3,1.9394377E-2,-2.399335E-2,-4.6033497E-4,7.445513E-3,-2.091879E-2,4.6147678E-2,1.3108696E-2],"categories":[],"categories_nodes":[],"categories_segments":[],"categories_sizes":[],"default_left":[0,0,0,0,0,0,0,0,0,0,0,0,0,0,0,0,0,0,0,0,0,0,0],"id":17,"left_children":[1,3,5,7,9,11,13,15,17,-1,-1,19,21,-1,-1,-1,-1,-1,-1,-1,-1,-1,-1],"loss_changes":[5.8512074E-1,7.386415E-1,1.1820533E0,6.7691416E-1,1.4941317E-1,1.2320225E0,7.789216E-1,1.1732764E0,9.038389E-1,0E0,0E0,6.9635165E-1,2.9647517E-1,0E0,0E0,0E0,0E0,0E0,0E0,0E0,0E0,0E0,0E0],"parents":[2147483647,0,0,1,1,2,2,3,3,4,4,5,5,6,6,7,7,8,8,11,11,12,12],"right_children":[2,4,6,8,10,12,14,16,18,-1,-1,20,22,-1,-1,-1,-1,-1,-1,-1,-1,-1,-1],"split_conditions":[6.5E0,1.4E1,1.05E1,4E0,5E0,9E0,1.35E1,3.5E0,5.5E0,2.2767218E-2,1.0001798E-3,1E1,9.5E0,-2.4267418E-2,1.0939738E-2,-5.4750177E-3,1.9394377E-2,-2.399335E-2,-4.6033497E-4,7.445513E-3,-2.091879E-2,4.6147678E-2,1.3108696E-2],"split_indices":[4,8,4,4,4,4,4,4,4,0,0,9,4,0,0,0,0,0,0,0,0,0,0],"split_type":[0,0,0,0,0,0,0,0,0,0,0,0,0,0,0,0,0,0,0,0,0,0,0],"sum_hessian":[7.527181E1,4.7812653E1,2.7459162E1,4.46664E1,3.1462512E0,2.1971403E1,5.4877577E0,2.9068039E1,1.5598362E1,1.9381083E0,1.2081429E0,1.7903433E1,4.067971E0,3.866129E0,1.6216289E0,2.4225853E1,4.842187E0,8.18605E0,7.412311E0,1.6406599E1,1.4968333E0,1.5510883E0,2.5168831E0],"tree_param":{"num_deleted":"0","num_feature":"15","num_nodes":"23","size_leaf_vector":"1"}},{"base_weights":[-1.8535623E-2,-6.719352E-2,2.752264E-1,-3.3472583E-1,-2.9089674E-2,3.8178936E-2,-4.2895608E-2,2.6597315E-1,-8.734938E-1,-9.694805E-2,1.490129E-1,-3.3445078E-1,1.8274235E-2,2.692405E-2,-4.0567858E-4,-1.4490983E-2,-5.953252E-2,-7.262951E-3,1.6631866E-2,1.5441385E-2,-1.1761664E-2,-6.47472E-3,-2.5087489E-2],"categories":[],"categories_nodes":[],"categories_segments":[],"categories_sizes":[],"default_left":[0,0,0,0,0,0,0,0,0,0,0,0,0,0,0,0,0,0,0,0,0,0,0],"id":18,"left_children":[1,3,5,7,9,-1,11,13,15,17,19,21,-1,-1,-1,-1,-1,-1,-1,-1,-1,-1,-1],"loss_changes":[1.1560686E0,6.944623E-1,1.8201612E0,2.988756E0,7.5847775E-1,0E0,1.0644851E0,3.6240995E-1,5.293014E-1,9.8605204E-1,1.1398442E0,1.11252904E-1,0E0,0E0,0E0,0E0,0E0,0E0,0E0,0E0,0E0,0E0,0E0],"parents":[2147483647,0,0,1,1,2,2,3,3,4,4,6,6,7,7,8,8,9,9,10,10,11,11],"right_children":[2,4,6,8,10,-1,12,14,16,18,20,22,-1,-1,-1,-1,-1,-1,-1,-1,-1,-1,-1],"split_conditions":[9E0,7E0,1.05E1,7E0,6.5E0,3.8178936E-2,1.3E1,4E0,4E0,1.4E1,8E0,1.2E1,1.8274235E-2,2.692405E-2,-4.0567858E-4,-1.4490983E-2,-5.953252E-2,-7.262951E-3,1.6631866E-2,1.5441385E-2,-1.1761664E-2,-6.47472E-3,-2.5087489E-2],"split_indices":[4,9,4,8,4,0,4,4,4,8,4,4,0,0,0,0,0,0,0,0,0,0,0],"split_type":[0,0,0,0,0,0,0,0,0,0,0,0,0,0,0,0,0,0,0,0,0,0,0],"sum_hessian":[7.858498E1,6.807971E1,1.0505262E1,7.5170326E0,6.0562683E1,3.5915573E0,6.9137053E0,3.7936432E0,3.7233894E0,4.418394E1,1.637874E1,4.139454E0,2.7742515E0,1.418589E0,2.3750544E0,1.9846945E0,1.7386949E0,4.03123E1,3.8716412E0,1.1706201E1,4.67254E0,2.6576374E0,1.4818166E0],"tree_param":{"num_deleted":"0","num_feature":"15","num_nodes":"23","size_leaf_vector":"1"}},{"base_weights":[-3.6605676E-3,-6.352719E-2,3.7151474E-1,-3.1843062E-2,-4.586186E-1,4.01556E-2,8.603081E-3,-1.6013548E-1,6.7718975E-2,-3.7512895E-2,-4.170342E-3,-3.0325997E-1,1.7668938E-2,1.3409011E-2,-1.0476288E-2,3.8551338E-4,2.7205765E-2,-1.1307771E-3,-2.4310572E-2],"categories":[],"categories_nodes":[],"categories_segments":[],"categories_sizes":[],"default_left":[0,0,0,0,0,0,0,0,0,0,0,0,0,0,0,0,0,0,0],"id":19,"left_children":[1,3,5,7,9,-1,11,13,15,-1,-1,17,-1,-1,-1,-1,-1,-1,-1],"loss_changes":[1.7828419E0,8.416548E-1,1.7042236E0,8.3340245E-1,4.8494577E-1,0E0,8.539467E-1,6.577474E-1,1.0524648E0,0E0,0E0,2.0387414E-1,0E0,0E0,0E0,0E0,0E0,0E0,0E0],"parents":[2147483647,0,0,1,1,2,2,3,3,4,4,6,6,7,7,8,8,11,11],"right_children":[2,4,6,8,10,-1,12,14,16,-1,-1,18,-1,-1,-1,-1,-1,-1,-1],"split_conditions":[9E0,8E0,1.05E1,3.5E0,8.5E0,4.01556E-2,1.3E1,7E0,1.1E1,-3.7512895E-2,-4.170342E-3,1.2E1,1.7668938E-2,1.3409011E-2,-1.0476288E-2,3.8551338E-4,2.7205765E-2,-1.1307771E-3,-2.4310572E-2],"split_indices":[4,4,4,4,4,0,4,8,8,0,0,4,0,0,0,0,0,0,0],"split_type":[0,0,0,0,0,0,0,0,0,0,0,0,0,0,0,0,0,0,0],"sum_hessian":[7.732606E1,6.74015E1,9.924565E0,6.339793E1,4.0035634E0,3.979238E0,5.9453273E0,2.743617E1,3.596176E1,1.6902393E0,2.313324E0,3.1848865E0,2.7604406E0,2.3786397E0,2.5057531E1,3.284115E1,3.1206121E0,1.7002882E0,1.4845983E0],"tree_param":{"num_deleted":"0","num_feature":"15","num_nodes":"19","size_leaf_vector":"1"}},{"base_weights":[3.812027E-2,-3.5582474E-1,7.971388E-2,1.1119443E-2,-5.024666E-1,3.1431694E-2,4.6498278E-1,-3.0699888E-2,-3.9292676E-3,5.0037876E-2,-1.857291E-2,3.1063354E-2,1.0645718E-1,4.005594E-3,-1.7277129E-2,-1.1931392E-2,2.2238465E-2],"categories":[],"categories_nodes":[],"categories_segments":[],"categories_sizes":[],"default_left":[0,0,0,0,0,0,0,0,0,0,0,0,0,0,0,0,0],"id":20,"left_children":[1,3,5,-1,7,9,11,-1,-1,13,-1,-1,15,-1,-1,-1,-1],"loss_changes":[1.317313E0,7.642329E-1,1.3241103E0,0E0,2.5645804E-1,5.0603765E-1,3.788786E-1,0E0,0E0,7.776116E-1,0E0,0E0,5.285063E-1,0E0,0E0,0E0,0E0],"parents":[2147483647,0,0,1,1,2,2,4,4,5,5,6,6,9,9,12,12],"right_children":[2,4,6,-1,8,10,12,-1,-1,14,-1,-1,16,-1,-1,-1,-1],"split_conditions":[2E0,1E0,9E0,1.1119443E-2,8E0,1.1E1,7E0,-3.0699888E-2,-3.9292676E-3,8E0,-1.857291E-2,3.1063354E-2,8.5E0,4.005594E-3,-1.7277129E-2,-1.1931392E-2,2.2238465E-2],"split_indices":[4,4,8,0,8,9,4,0,0,8,0,0,4,0,0,0,0],"split_type":[0,0,0,0,0,0,0,0,0,0,0,0,0,0,0,0,0],"sum_hessian":[7.7663536E1,6.6953325E0,7.096821E1,1.25E0,5.4453325E0,6.4026E1,6.942203E0,3.9559376E0,1.4893947E0,6.203683E1,1.9891706E0,4.324345E0,2.6178575E0,5.8394844E1,3.6419854E0,1.4418223E0,1.1760353E0],"tree_param":{"num_deleted":"0","num_feature":"15","num_nodes":"17","size_leaf_vector":"1"}},{"base_weights":[-3.9554395E-2,4.3595463E-1,-9.160785E-2,6.511896E-1,8.2445495E-2,-6.757638E-1,-4.2686407E-2,7.1579604E-3,5.0318427E-2,2.152339E-2,-2.0839168E-2,-6.7295358E-3,-8.921956E-1,-1.732277E-1,1.8469632E-1,-5.3741384E-2,-1.4481126E-2,1.8541718E-2,-1.0968837E-2,1.356864E-2,-2.3956303E-2],"categories":[],"categories_nodes":[],"categories_segments":[],"categories_sizes":[],"default_left":[0,0,0,0,0,0,0,0,0,0,0,0,0,0,0,0,0,0,0,0,0],"id":21,"left_children":[1,3,5,7,9,11,13,-1,-1,-1,-1,-1,15,17,19,-1,-1,-1,-1,-1,-1],"loss_changes":[1.9769958E0,5.4704595E-1,2.0105696E0,7.1527267E-1,8.974644E-1,5.179393E-1,2.0182657E0,0E0,0E0,0E0,0E0,0E0,9.736562E-2,1.161669E0,1.5621151E0,0E0,0E0,0E0,0E0,0E0,0E0],"parents":[2147483647,0,0,1,1,2,2,3,3,4,4,5,5,6,6,12,12,13,13,14,14],"right_children":[2,4,6,8,10,12,14,-1,-1,-1,-1,-1,16,18,20,-1,-1,-1,-1,-1,-1],"split_conditions":[7E0,7E0,7E0,5E0,6E0,4E0,6.5E0,7.1579604E-3,5.0318427E-2,2.152339E-2,-2.0839168E-2,-6.7295358E-3,8E0,1.5E0,1E1,-5.3741384E-2,-1.4481126E-2,1.8541718E-2,-1.0968837E-2,1.356864E-2,-2.3956303E-2],"split_indices":[8,9,9,4,4,4,4,0,0,0,0,0,4,4,9,0,0,0,0,0,0],"split_type":[0,0,0,0,0,0,0,0,0,0,0,0,0,0,0,0,0,0,0,0,0],"sum_hessian":[7.725905E1,6.895295E0,7.0363754E1,3.7624462E0,3.132849E0,4.4472504E0,6.5916504E1,2.1254165E0,1.6370296E0,1.9271377E0,1.2057112E0,1.7338178E0,2.7134326E0,4.202688E1,2.3889624E1,1.48087E0,1.2325625E0,2.7359965E0,3.9290882E1,2.1653486E1,2.2361374E0],"tree_param":{"num_deleted":"0","num_feature":"15","num_nodes":"21","size_leaf_vector":"1"}},{"base_weights":[4.822778E-2,-2.146577E-1,1.1573097E-1,1.029682E-2,-2.6288742E-1,1.8871862E-2,1.8611223E-1,-2.2589736E-2,-1.6847244E-1,1.2729505E-1,-1.8979971E-1,1.7509881E-2,8.866067E-2,1.7339325E-3,-1.844067E-2,8.649574E-4,1.5502443E-2,-1.4325849E-2,2.503746E-3,-2.2262263E-3,1.0185362E-2],"categories":[],"categories_nodes":[],"categories_segments":[],"categories_sizes":[],"default_left":[0,0,0,0,0,0,0,0,0,0,0,0,0,0,0,0,0,0,0,0,0],"id":22,"left_children":[1,3,5,-1,7,9,11,-1,13,15,17,-1,19,-1,-1,-1,-1,-1,-1,-1,-1],"loss_changes":[1.4204017E0,3.8718116E-1,4.2749256E-1,0E0,1.944232E-1,6.5132403E-1,5.526686E-1,0E0,4.893098E-1,3.7337005E-1,2.4355647E-1,0E0,3.8050848E-1,0E0,0E0,0E0,0E0,0E0,0E0,0E0,0E0],"parents":[2147483647,0,0,1,1,2,2,4,4,5,5,6,6,8,8,9,9,10,10,12,12],"right_children":[2,4,6,-1,8,10,12,-1,14,16,18,-1,20,-1,-1,-1,-1,-1,-1,-1,-1],"split_conditions":[3E0,1E0,5.5E0,1.029682E-2,1.5E0,4E0,7E0,-2.2589736E-2,2.5E0,3.5E0,5E0,1.7509881E-2,8.5E0,1.7339325E-3,-1.844067E-2,8.649574E-4,1.5502443E-2,-1.4325849E-2,2.503746E-3,-2.2262263E-3,1.0185362E-2],"split_indices":[4,4,4,0,4,4,4,0,4,4,4,0,4,0,0,0,0,0,0,0,0],"split_type":[0,0,0,0,0,0,0,0,0,0,0,0,0,0,0,0,0,0,0,0,0],"sum_hessian":[7.76425E1,1.5418091E1,6.2224415E1,1.2497307E0,1.416836E1,2.6720135E1,3.550428E1,3.4601078E0,1.0708252E1,1.7840437E1,8.879698E0,1.22628975E1,2.324138E1,5.7274084E0,4.9808435E0,1.1820544E1,6.0198936E0,6.189608E0,2.6900897E0,1.1055649E1,1.2185733E1],"tree_param":{"num_deleted":"0","num_feature":"15","num_nodes":"21","size_leaf_vector":"1"}},{"base_weights":[6.0997296E-2,-1.2978525E-1,1.6475937E-1,-8.259553E-2,-2.2150943E-2,3.114357E-2,9.849332E-2,-2.0109956E-1,6.828209E-2,2.7943522E-2,5.237116E-1,-1.4006761E-2,1.4939125E-2,7.996912E-3,-1.5166166E-2,-1.7832695E-2,6.7943023E-3,3.7698053E-2,4.6390863E-3],"categories":[],"categories_nodes":[],"categories_segments":[],"categories_sizes":[],"default_left":[0,0,0,0,0,0,0,0,0,0,0,0,0,0,0,0,0,0,0],"id":23,"left_children":[1,3,5,7,-1,-1,9,11,13,15,17,-1,-1,-1,-1,-1,-1,-1,-1],"loss_changes":[1.5747521E0,3.8027906E-1,1.4949626E0,4.7393495E-1,0E0,0E0,1.364595E0,6.63274E-1,4.595961E-1,1.7293655E0,5.736129E-1,0E0,0E0,0E0,0E0,0E0,0E0,0E0,0E0],"parents":[2147483647,0,0,1,1,2,2,3,3,6,6,7,7,8,8,9,9,10,10],"right_children":[2,4,6,8,-1,-1,10,12,14,16,18,-1,-1,-1,-1,-1,-1,-1,-1],"split_conditions":[3.5E0,1.1E1,4E0,3E0,-2.2150943E-2,3.114357E-2,9E0,8E0,8E0,5.5E0,7.5E0,-1.4006761E-2,1.4939125E-2,7.996912E-3,-1.5166166E-2,-1.7832695E-2,6.7943023E-3,3.7698053E-2,4.6390863E-3],"split_indices":[4,8,4,4,0,0,8,8,8,4,4,0,0,0,0,0,0,0,0],"split_type":[0,0,0,0,0,0,0,0,0,0,0,0,0,0,0,0,0,0,0],"sum_hessian":[7.746885E1,2.7202347E1,5.0266502E1,2.4739016E1,2.4633317E0,5.2907567E0,4.4975746E1,1.3669609E1,1.1069406E1,3.948958E1,5.48617E0,1.2182973E1,1.486636E0,9.336234E0,1.7331722E0,8.149376E0,3.1340202E1,3.0870953E0,2.3990746E0],"tree_param":{"num_deleted":"0","num_feature":"15","num_nodes":"19","size_leaf_vector":"1"}},{"base_weights":[1.6489817E-2,4.456404E-2,-2.3072146E-2,2.666084E-1,1.930275E-2,2.9327055E-2,-7.260462E-3,-2.8267771E-2,6.57594E-2,2.5525314E-3,8.415179E-3],"categories":[],"categories_nodes":[],"categories_segments":[],"categories_sizes":[],"default_left":[0,0,0,0,0,0,0,0,0,0,0],"id":24,"left_children":[1,3,-1,5,7,-1,-1,-1,9,-1,-1],"loss_changes":[1.0819508E0,4.1905645E-1,0E0,1.0926893E0,1.9107685E0,0E0,0E0,0E0,8.9143395E-2,0E0,0E0],"parents":[2147483647,0,0,1,1,3,3,4,4,8,8],"right_children":[2,4,-1,6,8,-1,-1,-1,10,-1,-1],"split_conditions":[1.1E1,7E0,-2.3072146E-2,7E0,7E0,2.9327055E-2,-7.260462E-3,-2.8267771E-2,1.1E1,2.5525314E-3,8.415179E-3],"split_indices":[9,8,0,9,9,0,0,0,8,0,0],"split_type":[0,0,0,0,0,0,0,0,0,0,0],"sum_hessian":[7.810416E1,7.462724E1,3.476918E0,6.6469693E0,6.798027E1,3.5020354E0,3.144934E0,4.1818647E0,6.379841E1,5.7105175E1,6.6932335E0],"tree_param":{"num_deleted":"0","num_feature":"15","num_nodes":"11","size_leaf_vector":"1"}},{"base_weights":[-1.7121503E-2,8.112362E-3,-2.4458734E-2,-7.636622E-2,1.5470277E-1,4.6327734E-1,-1.4505471E-1,-3.6459306E-1,2.3058385E-1,2.771819E-2,1.0788319E-2,-2.6410598E-2,-5.3472747E-3,-3.539538E-2,2.6815755E-3,1.85832E-2,-3.9002318E-3],"categories":[],"categories_nodes":[],"categories_segments":[],"categories_sizes":[],"default_left":[0,0,0,0,0,0,0,0,0,0,0,0,0,0,0,0,0],"id":25,"left_children":[1,3,-1,5,7,9,11,13,15,-1,-1,-1,-1,-1,-1,-1,-1],"loss_changes":[9.348118E-1,9.4262004E-1,0E0,1.8595275E0,1.1799221E0,8.85129E-3,5.809551E-1,6.0268134E-1,1.1120362E0,0E0,0E0,0E0,0E0,0E0,0E0,0E0,0E0],"parents":[2147483647,0,0,1,1,3,3,4,4,5,5,6,6,7,7,8,8],"right_children":[2,4,-1,6,8,10,12,14,16,-1,-1,-1,-1,-1,-1,-1,-1],"split_conditions":[1.1E1,6.5E0,-2.4458734E-2,7E0,7E0,7E0,7E0,8E0,9.5E0,2.771819E-2,1.0788319E-2,-2.6410598E-2,-5.3472747E-3,-3.539538E-2,2.6815755E-3,1.85832E-2,-3.9002318E-3],"split_indices":[9,4,0,8,9,9,9,4,4,0,0,0,0,0,0,0,0],"split_type":[0,0,0,0,0,0,0,0,0,0,0,0,0,0,0,0,0],"sum_hessian":[7.7145134E1,7.41635E1,2.981636E0,4.735331E1,2.6810186E1,4.6981554E0,4.2655155E1,2.9330337E0,2.3877153E1,2.5280528E0,2.1701026E0,2.6953297E0,3.9959824E1,1.2303815E0,1.7026522E0,1.6245604E1,7.631549E0],"tree_param":{"num_deleted":"0","num_feature":"15","num_nodes":"17","size_leaf_vector":"1"}},{"base_weights":[-3.111572E-2,-8.260448E-2,2.0678088E-1,2.824381E-1,-1.2534584E-1,3.870541E-1,-3.1934027E-2,4.889934E-1,-1.9674847E-2,-6.353601E-1,-7.73604E-2,6.645153E-1,5.00138E-2,1.2888761E-2,3.9157044E-2,-1.1058733E-2,-4.1772433E-2,-5.5612004E-3,1.08681545E-2,1.5057161E-2,4.1803833E-2,-6.2951776E-3,1.2221887E-2],"categories":[],"categories_nodes":[],"categories_segments":[],"categories_sizes":[],"default_left":[0,0,0,0,0,0,0,0,0,0,0,0,0,0,0,0,0,0,0,0,0,0,0],"id":26,"left_children":[1,3,5,7,9,11,-1,13,-1,15,17,19,21,-1,-1,-1,-1,-1,-1,-1,-1,-1,-1],"loss_changes":[9.743133E-1,1.048903E0,2.4099374E0,1.18592E0,1.3909051E0,1.1187501E0,0E0,1.9914126E-1,0E0,2.2308409E-1,5.723051E-1,1.6435194E-1,2.5800127E-1,0E0,0E0,0E0,0E0,0E0,0E0,0E0,0E0,0E0,0E0],"parents":[2147483647,0,0,1,1,2,2,3,3,4,4,5,5,7,7,9,9,10,10,11,11,12,12],"right_children":[2,4,6,8,10,12,-1,14,-1,16,18,20,22,-1,-1,-1,-1,-1,-1,-1,-1,-1,-1],"split_conditions":[8.5E0,7E0,8E0,6.5E0,7E0,1.05E1,-3.1934027E-2,5E0,-1.9674847E-2,4E0,1.4E1,9E0,1.3E1,1.2888761E-2,3.9157044E-2,-1.1058733E-2,-4.1772433E-2,-5.5612004E-3,1.08681545E-2,1.5057161E-2,4.1803833E-2,-6.2951776E-3,1.2221887E-2],"split_indices":[4,8,9,4,9,4,0,4,0,4,8,4,4,0,0,0,0,0,0,0,0,0,0],"split_type":[0,0,0,0,0,0,0,0,0,0,0,0,0,0,0,0,0,0,0,0,0,0,0],"sum_hessian":[7.714778E1,6.3957924E1,1.31898575E1,6.115865E0,5.7842056E1,1.1318642E1,1.8712153E0,4.8962226E0,1.2196426E0,3.921511E0,5.3920547E1,5.6751094E0,5.6435328E0,3.7919002E0,1.1043224E0,1.9631509E0,1.9583602E0,4.892204E1,4.998507E0,2.7037647E0,2.9713445E0,3.1477942E0,2.4957383E0],"tree_param":{"num_deleted":"0","num_feature":"15","num_nodes":"23","size_leaf_vector":"1"}},{"base_weights":[6.8588614E-2,-2.984331E-2,2.3813479E-1,5.546445E-1,-9.780083E-2,2.7204403E-1,-6.206525E-3,3.2192802E-1,3.84102E-2,-2.3391822E-1,-3.578491E-2,2.1044528E-1,4.39122E-2,3.377685E-2,-1.108341E-2,-2.055106E-2,2.8549844E-2,7.160583E-3,-1.0922759E-2,-1.3425733E-2,1.3338134E-2],"categories":[],"categories_nodes":[],"categories_segments":[],"categories_sizes":[],"default_left":[0,0,0,0,0,0,0,0,0,0,0,0,0,0,0,0,0,0,0,0,0],"id":27,"left_children":[1,3,5,7,9,11,-1,13,-1,15,17,19,-1,-1,-1,-1,-1,-1,-1,-1,-1],"loss_changes":[1.3107028E0,2.0525436E0,3.8758945E-1,2.0570993E-2,3.7925354E-1,8.1035876E-1,0E0,9.76425E-1,0E0,2.257822E0,1.1013732E0,7.5967264E-1,0E0,0E0,0E0,0E0,0E0,0E0,0E0,0E0,0E0],"parents":[2147483647,0,0,1,1,2,2,3,3,4,4,5,5,7,7,9,9,10,10,11,11],"right_children":[2,4,6,8,10,12,-1,14,-1,16,18,20,-1,-1,-1,-1,-1,-1,-1,-1,-1],"split_conditions":[6.5E0,7E0,1.4E1,5E0,3E0,9E0,-6.206525E-3,4E0,3.84102E-2,8E0,4E0,7E0,4.39122E-2,3.377685E-2,-1.108341E-2,-2.055106E-2,2.8549844E-2,7.160583E-3,-1.0922759E-2,-1.3425733E-2,1.3338134E-2],"split_indices":[4,8,8,4,4,8,0,4,0,9,4,9,0,0,0,0,0,0,0,0,0],"split_type":[0,0,0,0,0,0,0,0,0,0,0,0,0,0,0,0,0,0,0,0,0],"sum_hessian":[7.7112236E1,4.9309208E1,2.780303E1,4.390014E0,4.4919193E1,2.5651052E1,2.1519768E0,3.3006856E0,1.0893286E0,1.3192142E1,3.1727055E1,2.4507853E1,1.1432E0,1.8527529E0,1.4479327E0,1.1214099E1,1.9780421E0,1.6133764E1,1.5593288E1,2.182086E0,2.2325768E1],"tree_param":{"num_deleted":"0","num_feature":"15","num_nodes":"21","size_leaf_vector":"1"}},{"base_weights":[6.5273466E-3,3.277416E-2,-4.2802173E-1,-7.3607214E-2,1.5208001E-1,-2.141472E-3,-3.587733E-2,-1.2545584E-1,2.338626E-2,2.437361E-1,-2.4260838E-1,-4.1635623E-4,-2.3551226E-2,7.3971017E-3,3.5851084E-2,-2.7531499E-2,1.7945783E-2],"categories":[],"categories_nodes":[],"categories_segments":[],"categories_sizes":[],"default_left":[0,0,0,0,0,0,0,0,0,0,0,0,0,0,0,0,0],"id":28,"left_children":[1,3,5,7,9,-1,-1,11,-1,13,15,-1,-1,-1,-1,-1,-1],"loss_changes":[8.9621437E-1,9.4875216E-1,4.6853346E-1,1.1736333E0,1.3305669E0,0E0,0E0,1.4953318E0,0E0,1.209694E0,1.5177265E0,0E0,0E0,0E0,0E0,0E0,0E0],"parents":[2147483647,0,0,1,1,2,2,3,3,4,4,7,7,9,9,10,10],"right_children":[2,4,6,8,10,-1,-1,12,-1,14,16,-1,-1,-1,-1,-1,-1],"split_conditions":[1.1E1,5.5E0,5E0,8E0,1.05E1,-2.141472E-3,-3.587733E-2,4E0,2.338626E-2,9E0,1.35E1,-4.1635623E-4,-2.3551226E-2,7.3971017E-3,3.5851084E-2,-2.7531499E-2,1.7945783E-2],"split_indices":[9,4,4,9,4,0,0,4,0,4,4,0,0,0,0,0,0],"split_type":[0,0,0,0,0,0,0,0,0,0,0,0,0,0,0,0,0],"sum_hessian":[7.634726E1,7.287045E1,3.476805E0,3.872426E1,3.4146194E1,1.9844992E0,1.4923059E0,3.6040554E1,2.6837053E0,2.8021414E1,6.124783E0,2.7681984E1,8.358568E0,2.439616E1,3.6252534E0,4.106554E0,2.0182292E0],"tree_param":{"num_deleted":"0","num_feature":"15","num_nodes":"17","size_leaf_vector":"1"}},{"base_weights":[9.126267E-3,-3.9712533E-2,3.2899955E-1,-1.3963611E-2,-4.1551134E-1,5.771532E-1,-7.554209E-2,-3.9226316E-2,2.5556505E-1,-2.0701792E-3,-3.486411E-2,7.017549E-1,2.338155E-3,-2.4115503E-2,1.7413441E-2,-6.7365277E-3,6.041113E-3,3.015444E-2,-1.8794484E-2,5.056232E-2,4.7933417E-3],"categories":[],"categories_nodes":[],"categories_segments":[],"categories_sizes":[],"default_left":[0,0,0,0,0,0,0,0,0,0,0,0,0,0,0,0,0,0,0,0,0],"id":29,"left_children":[1,3,5,7,9,11,13,15,17,-1,-1,19,-1,-1,-1,-1,-1,-1,-1,-1,-1],"loss_changes":[1.2627907E0,6.743795E-1,1.1181461E0,4.650041E-1,4.426083E-1,4.132762E-1,1.0219827E0,9.6336746E-1,1.5124996E0,0E0,0E0,9.146247E-1,0E0,0E0,0E0,0E0,0E0,0E0,0E0,0E0,0E0],"parents":[2147483647,0,0,1,1,2,2,3,3,4,4,5,5,6,6,7,7,8,8,11,11],"right_children":[2,4,6,8,10,12,14,16,18,-1,-1,20,-1,-1,-1,-1,-1,-1,-1,-1,-1],"split_conditions":[9E0,1.1E1,1.2E1,8E0,5E0,8E0,1.35E1,5.5E0,5.5E0,-2.0701792E-3,-3.486411E-2,1.05E1,2.338155E-3,-2.4115503E-2,1.7413441E-2,-6.7365277E-3,6.041113E-3,3.015444E-2,-1.8794484E-2,5.056232E-2,4.7933417E-3],"split_indices":[4,9,4,9,4,9,4,4,4,0,0,4,0,0,0,0,0,0,0,0,0],"split_type":[0,0,0,0,0,0,0,0,0,0,0,0,0,0,0,0,0,0,0,0,0],"sum_hessian":[7.899661E1,6.929273E1,9.703883E0,6.582004E1,3.47269E0,5.750024E0,3.9538593E0,6.096071E1,4.8593345E0,1.9846314E0,1.4880587E0,4.3945446E0,1.3554791E0,1.9470632E0,2.0067961E0,3.827777E1,2.2682936E1,3.1633136E0,1.696021E0,2.465911E0,1.9286339E0],"tree_param":{"num_deleted":"0","num_feature":"15","num_nodes":"21","size_leaf_vector":"1"}},{"base_weights":[-4.5179464E-2,-2.1654136E-2,-2.3944499E-2,-2.4475032E-1,1.0674039E-2,2.6563028E-1,-3.243123E-2,2.8129432E-3,7.039579E-2,-2.4069391E-2,3.1362455E-2,-6.47366E-4,7.6751537E-3,1.5533839E-2,-4.7228434E-3],"categories":[],"categories_nodes":[],"categories_segments":[],"categories_sizes":[],"default_left":[0,0,0,0,0,0,0,0,0,0,0,0,0,0,0],"id":30,"left_children":[1,3,-1,5,7,9,-1,11,13,-1,-1,-1,-1,-1,-1],"loss_changes":[7.868638E-1,5.4470986E-1,0E0,2.1418433E0,3.107303E-2,1.6338167E0,0E0,1.4424965E-1,3.345912E-1,0E0,0E0,0E0,0E0,0E0,0E0],"parents":[2147483647,0,0,1,1,3,3,4,4,5,5,7,7,8,8],"right_children":[2,4,-1,6,8,10,-1,12,14,-1,-1,-1,-1,-1,-1],"split_conditions":[1.1E1,7E0,-2.3944499E-2,7E0,8E0,6E0,-3.243123E-2,1.4E1,8E0,-2.4069391E-2,3.1362455E-2,-6.47366E-4,7.6751537E-3,1.5533839E-2,-4.7228434E-3],"split_indices":[9,9,0,8,9,8,0,8,8,0,0,0,0,0,0],"split_type":[0,0,0,0,0,0,0,0,0,0,0,0,0,0,0],"sum_hessian":[7.71358E1,7.416298E1,2.9728212E0,8.554907E0,6.560807E1,3.9303603E0,4.624547E0,5.8901985E1,6.7060905E0,1.173985E0,2.7563753E0,5.4152412E1,4.749571E0,2.36883E0,4.3372602E0],"tree_param":{"num_deleted":"0","num_feature":"15","num_nodes":"15","size_leaf_vector":"1"}},{"base_weights":[4.000096E-2,-2.4805509E-1,7.604736E-2,8.690001E-3,-2.8416554E-2,9.853198E-2,-1.5158906E-2,1.2652002E-1,-2.931178E-2,5.3036637E-3,1.965927E-2,-1.1465705E-2,4.957535E-3],"categories":[],"categories_nodes":[],"categories_segments":[],"categories_sizes":[],"default_left":[0,0,0,0,0,0,0,0,0,0,0,0,0],"id":31,"left_children":[1,3,5,-1,-1,7,-1,9,11,-1,-1,-1,-1],"loss_changes":[8.392251E-1,1.3177044E0,6.351464E-1,0E0,0E0,2.4618506E-1,0E0,2.6245117E-1,3.5630924E-1,0E0,0E0,0E0,0E0],"parents":[2147483647,0,0,1,1,2,2,5,5,7,7,8,8],"right_children":[2,4,6,-1,-1,8,-1,10,12,-1,-1,-1,-1],"split_conditions":[7E0,7E0,1.1E1,8.690001E-3,-2.8416554E-2,8E0,-1.5158906E-2,8E0,9E0,5.3036637E-3,1.965927E-2,-1.1465705E-2,4.957535E-3],"split_indices":[9,8,9,0,0,8,0,9,8,0,0,0,0],"split_type":[0,0,0,0,0,0,0,0,0,0,0,0,0],"sum_hessian":[7.800711E1,8.021744E0,6.998537E1,3.6592562E0,4.3624873E0,6.676688E1,3.2184916E0,5.4783756E1,1.1983121E1,5.2180553E1,2.603204E0,4.3795557E0,7.603565E0],"tree_param":{"num_deleted":"0","num_feature":"15","num_nodes":"13","size_leaf_vector":"1"}},{"base_weights":[-6.4814515E-2,-4.366029E-2,-2.2493947E-2,-2.716185E-1,-1.5066387E-2,2.679297E-1,-3.3102002E-2,-3.7688784E-2,1.6833203E-1,-2.361254E-2,3.5545494E-2,-1.2790607E-3,-6.4234952E-3,2.335925E-2,-1.4334259E-3],"categories":[],"categories_nodes":[],"categories_segments":[],"categories_sizes":[],"default_left":[0,0,0,0,0,0,0,0,0,0,0,0,0,0,0],"id":32,"left_children":[1,3,-1,5,7,9,-1,11,13,-1,-1,-1,-1,-1,-1],"loss_changes":[6.1812246E-1,4.8688868E-1,0E0,1.9334803E0,2.884201E-1,1.7166986E0,0E0,6.413418E-2,4.636895E-1,0E0,0E0,0E0,0E0,0E0,0E0],"parents":[2147483647,0,0,1,1,3,3,4,4,5,5,7,7,8,8],"right_children":[2,4,-1,6,8,10,-1,12,14,-1,-1,-1,-1,-1,-1],"split_conditions":[1.1E1,7E0,-2.2493947E-2,7E0,8E0,6E0,-3.3102002E-2,1E1,8E0,-2.361254E-2,3.5545494E-2,-1.2790607E-3,-6.4234952E-3,2.335925E-2,-1.4334259E-3],"split_indices":[9,9,0,8,9,8,0,8,8,0,0,0,0,0,0],"split_type":[0,0,0,0,0,0,0,0,0,0,0,0,0,0,0],"sum_hessian":[7.729422E1,7.4324455E1,2.9697666E0,7.336528E0,6.698793E1,3.2117503E0,4.1247773E0,6.0339485E1,6.648444E0,1.177753E0,2.0339973E0,5.4369907E1,5.9695787E0,2.0965116E0,4.5519323E0],"tree_param":{"num_deleted":"0","num_feature":"15","num_nodes":"15","size_leaf_vector":"1"}},{"base_weights":[8.0741625E-3,-2.0784226E-1,1.1417962E-1,-2.7516007E-1,1.7386517E-2,-1.5227178E-1,1.529146E-1,-2.0081298E-2,-9.723732E-2,1.896749E-1,-2.2159053E-2,1.8656147E-1,-2.520864E-1,3.7899984E-3,-4.084752E-2,1.319441E-3,1.3163947E-2,1.1187922E-3,1.6150093E-2,9.215383E-3,-3.3705857E-2],"categories":[],"categories_nodes":[],"categories_segments":[],"categories_sizes":[],"default_left":[0,0,0,0,0,0,0,0,0,0,0,0,0,0,0,0,0,0,0,0,0],"id":33,"left_children":[1,3,5,7,-1,9,11,-1,13,15,-1,17,19,-1,-1,-1,-1,-1,-1,-1,-1],"loss_changes":[1.7818642E0,1.0546381E0,5.610139E-1,4.8809946E-1,0E0,7.917068E-1,6.736922E-1,0E0,1.4384485E0,4.0769815E-2,0E0,9.568012E-1,8.522328E-1,0E0,0E0,0E0,0E0,0E0,0E0,0E0,0E0],"parents":[2147483647,0,0,1,1,2,2,3,3,5,5,6,6,8,8,9,9,11,11,12,12],"right_children":[2,4,6,8,-1,10,12,-1,14,16,-1,18,20,-1,-1,-1,-1,-1,-1,-1,-1],"split_conditions":[3.5E0,8E0,7E0,3E0,1.7386517E-2,7E0,1E1,-2.0081298E-2,1.1E1,5.5E0,-2.2159053E-2,6.5E0,7.5E0,3.7899984E-3,-4.084752E-2,1.319441E-3,1.3163947E-2,1.1187922E-3,1.6150093E-2,9.215383E-3,-3.3705857E-2],"split_indices":[4,9,9,4,0,8,9,0,8,4,0,4,4,0,0,0,0,0,0,0,0],"split_type":[0,0,0,0,0,0,0,0,0,0,0,0,0,0,0,0,0,0,0,0,0],"sum_hessian":[7.574116E1,2.4640602E1,5.1100555E1,2.2427792E1,2.2128112E0,6.113779E0,4.4986774E1,1.2374678E1,1.0053114E1,2.9703276E0,3.1434515E0,4.2034008E1,2.9527667E0,8.825838E0,1.2272751E0,1.3450158E0,1.6253119E0,1.9605597E1,2.2428411E1,1.7286096E0,1.2241571E0],"tree_param":{"num_deleted":"0","num_feature":"15","num_nodes":"21","size_leaf_vector":"1"}},{"base_weights":[-5.81269E-2,-1.0659931E-1,2.8490242E-1,-1.3938005E-1,1.9680709E-1,4.360404E-1,-1.8620033E-2,-1.118177E-1,-4.8683423E-1,-2.1057673E-2,5.251812E-1,4.534344E-2,1.4913002E-1,-1.9866168E-2,-3.5533165E-3,-6.4530334E-4,-3.7142638E-2,4.4521905E-2,9.040276E-3,-5.374554E-3,2.1640504E-2],"categories":[],"categories_nodes":[],"categories_segments":[],"categories_sizes":[],"default_left":[0,0,0,0,0,0,0,0,0,0,0,0,0,0,0,0,0,0,0,0,0],"id":34,"left_children":[1,3,5,7,9,11,-1,13,15,-1,17,-1,19,-1,-1,-1,-1,-1,-1,-1,-1],"loss_changes":[1.2942913E0,6.9709134E-1,1.124394E0,5.3309655E-1,1.6375388E0,9.9055827E-1,0E0,6.482046E-1,5.0133705E-1,0E0,4.682938E-1,0E0,5.1062727E-1,0E0,0E0,0E0,0E0,0E0,0E0,0E0,0E0],"parents":[2147483647,0,0,1,1,2,2,3,3,4,4,5,5,7,7,8,8,10,10,12,12],"right_children":[2,4,6,8,10,12,-1,14,16,-1,18,-1,20,-1,-1,-1,-1,-1,-1,-1,-1],"split_conditions":[9E0,1.1E1,8E0,1.1E1,3.5E0,1.05E1,-1.8620033E-2,7E0,4E0,-2.1057673E-2,5E0,4.534344E-2,1.3E1,-1.9866168E-2,-3.5533165E-3,-6.4530334E-4,-3.7142638E-2,4.4521905E-2,9.040276E-3,-5.374554E-3,2.1640504E-2],"split_indices":[4,8,9,9,4,4,0,9,4,0,4,0,4,0,0,0,0,0,0,0,0],"split_type":[0,0,0,0,0,0,0,0,0,0,0,0,0,0,0,0,0,0,0,0,0],"sum_hessian":[7.501409E1,6.633039E1,8.683701E0,6.0350586E1,5.9798026E0,7.333974E0,1.3497264E0,5.713971E1,3.2108767E0,1.9769251E0,4.002877E0,1.9587681E0,5.3752055E0,6.0441594E0,5.109555E1,1.4945863E0,1.7162904E0,1.1730452E0,2.829832E0,3.1482952E0,2.2269104E0],"tree_param":{"num_deleted":"0","num_feature":"15","num_nodes":"21","size_leaf_vector":"1"}},{"base_weights":[8.0404915E-3,-1.6242385E-1,9.485302E-2,-2.4993096E-2,-1.13345556E-1,2.178682E-2,3.751857E-2,-1.4247206E-2,-1.6907294E-1,8.196058E-2,-3.3566948E-2,-7.5769806E-3,2.026344E-2,-3.2197402E-4,-2.8649027E-2,2.0040844E-2,1.5987518E-3],"categories":[],"categories_nodes":[],"categories_segments":[],"categories_sizes":[],"default_left":[0,0,0,0,0,0,0,0,0,0,0,0,0,0,0,0,0],"id":35,"left_children":[1,3,5,-1,7,9,-1,11,13,15,-1,-1,-1,-1,-1,-1,-1],"loss_changes":[1.1664785E0,3.841107E-1,2.482319E0,0E0,1.3305116E-1,2.0556111E0,0E0,6.3281715E-1,1.0215799E0,7.0482004E-1,0E0,0E0,0E0,0E0,0E0,0E0,0E0],"parents":[2147483647,0,0,1,1,2,2,4,4,5,5,7,7,8,8,9,9],"right_children":[2,4,6,-1,8,10,-1,12,14,16,-1,-1,-1,-1,-1,-1,-1],"split_conditions":[3.5E0,7E0,1.1E1,-2.4993096E-2,2.5E0,1E1,3.751857E-2,8E0,8E0,4E0,-3.3566948E-2,-7.5769806E-3,2.026344E-2,-3.2197402E-4,-2.8649027E-2,2.0040844E-2,1.5987518E-3],"split_indices":[4,9,8,0,4,9,0,8,8,4,0,0,0,0,0,0,0],"split_type":[0,0,0,0,0,0,0,0,0,0,0,0,0,0,0,0,0],"sum_hessian":[7.678334E1,2.561499E1,5.116835E1,2.0862155E0,2.3528774E1,4.696654E1,4.201807E0,8.9208145E0,1.460796E1,4.402616E1,2.9403818E0,7.2024794E0,1.7183356E0,1.1138845E1,3.469115E0,5.0152674E0,3.9010895E1],"tree_param":{"num_deleted":"0","num_feature":"15","num_nodes":"17","size_leaf_vector":"1"}},{"base_weights":[-1.06246695E-2,2.6747274E-1,-3.780701E-2,3.7746325E-2,-1.9631427E-2,-1.779066E-2,-1.4690288E-2,1.8388872E-3,-1.0779743E-2,8.9676765E-4,-6.6205524E-3],"categories":[],"categories_nodes":[],"categories_segments":[],"categories_sizes":[],"default_left":[0,0,0,0,0,0,0,0,0,0,0],"id":36,"left_children":[1,3,5,-1,-1,-1,7,9,-1,-1,-1],"loss_changes":[5.9814525E-1,2.5649498E0,5.221429E-1,0E0,0E0,0E0,2.2594522E-1,1.4013226E-1,0E0,0E0,0E0],"parents":[2147483647,0,0,1,1,2,2,6,6,7,7],"right_children":[2,4,6,-1,-1,-1,8,10,-1,-1,-1],"split_conditions":[7E0,7E0,7E0,3.7746325E-2,-1.9631427E-2,-1.779066E-2,1E1,1.3E1,-1.0779743E-2,8.9676765E-4,-6.6205524E-3],"split_indices":[8,9,9,0,0,0,9,8,0,0,0],"split_type":[0,0,0,0,0,0,0,0,0,0,0],"sum_hessian":[7.678893E1,6.050229E0,7.07387E1,3.397605E0,2.6526241E0,3.8184197E0,6.692028E1,6.2748566E1,4.171714E0,5.680419E1,5.944376E0],"tree_param":{"num_deleted":"0","num_feature":"15","num_nodes":"11","size_leaf_vector":"1"}},{"base_weights":[1.1864287E-2,-1.8576063E-1,1.1151806E-1,-2.6982093E-1,1.7983383E-2,1.523339E-1,-4.2652604E-1,2.1606466E-1,-3.3381096E-1,2.3458185E-2,1.02048665E-1,-5.5576763E-3,-3.0998139E-2,2.178259E-2,-5.4685026E-3,-3.817093E-2,-8.682664E-3,-4.857998E-3,1.2122548E-2],"categories":[],"categories_nodes":[],"categories_segments":[],"categories_sizes":[],"default_left":[0,0,0,0,0,0,0,0,0,0,0,0,0,0,0,0,0,0,0],"id":37,"left_children":[1,3,5,7,-1,9,11,13,15,-1,17,-1,-1,-1,-1,-1,-1,-1,-1],"loss_changes":[1.5441359E0,1.303138E0,1.2079957E0,7.9856634E-1,0E0,7.346207E-1,1.7102844E-1,2.8532907E-1,1.3149734E0,0E0,1.2448591E0,0E0,0E0,0E0,0E0,0E0,0E0,0E0,0E0],"parents":[2147483647,0,0,1,1,2,2,3,3,5,5,6,6,7,7,8,8,10,10],"right_children":[2,4,6,8,-1,10,12,14,16,-1,18,-1,-1,-1,-1,-1,-1,-1,-1],"split_conditions":[3.5E0,8E0,1E1,7E0,1.7983383E-2,4E0,7.5E0,3E0,2E0,2.3458185E-2,6.5E0,-5.5576763E-3,-3.0998139E-2,2.178259E-2,-5.4685026E-3,-3.817093E-2,-8.682664E-3,-4.857998E-3,1.2122548E-2],"split_indices":[4,9,9,8,0,4,4,4,4,0,4,0,0,0,0,0,0,0,0],"split_type":[0,0,0,0,0,0,0,0,0,0,0,0,0,0,0,0,0,0,0],"sum_hessian":[7.635426E1,2.530583E1,5.1048435E1,2.2364382E1,2.9414485E0,4.81153E1,2.9331355E0,2.3260224E0,2.0038359E1,5.4495487E0,4.2665752E1,1.7137392E0,1.2193964E0,1.1866522E0,1.1393702E0,4.418769E0,1.561959E1,1.7766249E1,2.4899504E1],"tree_param":{"num_deleted":"0","num_feature":"15","num_nodes":"19","size_leaf_vector":"1"}},{"base_weights":[8.299737E-3,-2.3909412E-2,2.1902073E-2,1.5285592E-1,9.631165E-3,3.0852571E-2,-1.9143982E-2,-2.4558451E-2,4.87488E-2,2.92627E-3,-6.180126E-3],"categories":[],"categories_nodes":[],"categories_segments":[],"categories_sizes":[],"default_left":[0,0,0,0,0,0,0,0,0,0,0],"id":38,"left_children":[1,-1,3,5,7,-1,-1,-1,9,-1,-1],"loss_changes":[5.29403E-1,0E0,1.22650534E-1,1.865293E0,1.4283972E0,0E0,0E0,0E0,1.2081617E-1,0E0,0E0],"parents":[2147483647,0,0,2,2,3,3,4,4,8,8],"right_children":[2,-1,4,6,8,-1,-1,-1,10,-1,-1],"split_conditions":[6E0,-2.3909412E-2,7E0,7E0,7E0,3.0852571E-2,-1.9143982E-2,-2.4558451E-2,1.1E1,2.92627E-3,-6.180126E-3],"split_indices":[8,0,8,9,9,0,0,0,9,0,0],"split_type":[0,0,0,0,0,0,0,0,0,0,0],"sum_hessian":[7.741928E1,1.1767818E0,7.62425E1,5.550575E0,7.0691925E1,2.8925238E0,2.658051E0,4.2844477E0,6.640748E1,6.3467716E1,2.9397657E0],"tree_param":{"num_deleted":"0","num_feature":"15","num_nodes":"11","size_leaf_vector":"1"}},{"base_weights":[4.460244E-2,1.8880818E-2,3.325146E-2,4.3961585E-2,-3.2499924E-1,3.8354842E-3,3.735218E-1,-5.613478E-3,-1.972781E-2,-8.313655E-3,2.6368906E-3,3.4098458E-2,-2.3867512E-2],"categories":[],"categories_nodes":[],"categories_segments":[],"categories_sizes":[],"default_left":[0,0,0,0,0,0,0,0,0,0,0,0,0],"id":39,"left_children":[1,3,-1,5,7,9,11,-1,-1,-1,-1,-1,-1],"loss_changes":[1.1922446E0,6.483838E-1,0E0,9.16357E-1,3.141612E-2,5.318554E-1,2.2998767E0,0E0,0E0,0E0,0E0,0E0,0E0],"parents":[2147483647,0,0,1,1,3,3,4,4,5,5,6,6],"right_children":[2,4,-1,6,8,10,12,-1,-1,-1,-1,-1,-1],"split_conditions":[1.3E1,1.05E1,3.325146E-2,8.5E0,1.1E1,3E0,8E0,-5.613478E-3,-1.972781E-2,-8.313655E-3,2.6368906E-3,3.4098458E-2,-2.3867512E-2],"split_indices":[4,4,0,4,4,4,9,0,0,0,0,0,0],"split_type":[0,0,0,0,0,0,0,0,0,0,0,0,0],"sum_hessian":[7.449644E1,7.252033E1,1.9761117E0,6.84035E1,4.1168246E0,6.1880756E1,6.5227466E0,1.6585279E0,2.4582968E0,1.3281267E1,4.859949E1,4.933003E0,1.5897439E0],"tree_param":{"num_deleted":"0","num_feature":"15","num_nodes":"13","size_leaf_vector":"1"}},{"base_weights":[-1.3916443E-2,-5.5987995E-2,2.60859E-1,-1.502976E-1,7.792117E-3,3.9939106E-2,9.291957E-2,5.131283E-2,-2.7571148E-1,-4.579238E-2,4.3266678E-1,-7.988935E-2,2.6562223E-2,-2.834753E-3,1.7175933E-2,-9.701311E-3,-3.149114E-2,1.0379651E-2,-4.874098E-3,4.263831E-2,-2.2300739E-2,2.7176843E-3,-1.067408E-2],"categories":[],"categories_nodes":[],"categories_segments":[],"categories_sizes":[],"default_left":[0,0,0,0,0,0,0,0,0,0,0,0,0,0,0,0,0,0,0,0,0,0,0],"id":40,"left_children":[1,3,5,7,9,-1,11,13,15,17,19,21,-1,-1,-1,-1,-1,-1,-1,-1,-1,-1,-1],"loss_changes":[9.0421945E-1,4.075488E-1,8.6483735E-1,7.0456773E-1,9.5903087E-1,0E0,7.282019E-1,3.765792E-1,3.69272E-1,5.1188797E-1,2.1211464E0,1.43644E-1,0E0,0E0,0E0,0E0,0E0,0E0,0E0,0E0,0E0,0E0,0E0],"parents":[2147483647,0,0,1,1,2,2,3,3,4,4,6,6,7,7,8,8,9,9,10,10,11,11],"right_children":[2,4,6,8,10,-1,12,14,16,18,20,22,-1,-1,-1,-1,-1,-1,-1,-1,-1,-1,-1],"split_conditions":[9E0,3.5E0,9.5E0,2.5E0,1.1E1,3.9939106E-2,1.35E1,8E0,1.1E1,4E0,7E0,1.1E1,2.6562223E-2,-2.834753E-3,1.7175933E-2,-9.701311E-3,-3.149114E-2,1.0379651E-2,-4.874098E-3,4.263831E-2,-2.2300739E-2,2.7176843E-3,-1.067408E-2],"split_indices":[4,4,4,4,8,0,4,8,8,4,4,4,0,0,0,0,0,0,0,0,0,0,0],"split_type":[0,0,0,0,0,0,0,0,0,0,0,0,0,0,0,0,0,0,0,0,0,0,0],"sum_hessian":[7.595474E1,6.6559845E1,9.394901E0,2.6305801E1,4.025404E1,1.3415244E0,8.053376E0,1.0314872E1,1.5990931E1,3.653813E1,3.715908E0,6.3626504E0,1.690726E0,8.119603E0,2.1952689E0,1.42513895E1,1.739541E0,5.67971E0,3.0858421E1,2.5339262E0,1.1819817E0,3.4694433E0,2.8932073E0],"tree_param":{"num_deleted":"0","num_feature":"15","num_nodes":"23","size_leaf_vector":"1"}},{"base_weights":[-1.0092154E-2,-2.6315016E-1,2.3682397E-2,2.0911036E-1,-6.489699E-1,-1.849488E-2,2.063906E-1,-2.3100955E-2,5.527022E-1,-3.3165128E-3,-4.779392E-2,-3.625387E-2,1.573438E-2,-4.1343886E-2,3.8882825E-1,8.387591E-3,3.8311657E-2,3.0206636E-4,-3.1256866E-2,2.4769275E-2,-1.9505464E-2,3.4155726E-2,-4.2197295E-3],"categories":[],"categories_nodes":[],"categories_segments":[],"categories_sizes":[],"default_left":[0,0,0,0,0,0,0,0,0,0,0,0,0,0,0,0,0,0,0,0,0,0,0],"id":41,"left_children":[1,3,5,7,9,11,13,-1,15,-1,-1,17,-1,19,21,-1,-1,-1,-1,-1,-1,-1,-1],"loss_changes":[6.5941775E-1,1.7904117E0,5.304704E-1,1.3713452E0,8.739259E-1,3.453767E-1,5.990962E-1,0E0,1.719979E-1,0E0,0E0,1.360776E0,0E0,1.3865595E0,1.1056126E0,0E0,0E0,0E0,0E0,0E0,0E0,0E0,0E0],"parents":[2147483647,0,0,1,1,2,2,3,3,4,4,5,5,6,6,8,8,11,11,13,13,14,14],"right_children":[2,4,6,8,10,12,14,-1,16,-1,-1,18,-1,20,22,-1,-1,-1,-1,-1,-1,-1,-1],"split_conditions":[7E0,7E0,8E0,6E0,4E0,1.25E1,4E0,-2.3100955E-2,5E0,-3.3165128E-3,-4.779392E-2,1.05E1,1.573438E-2,2.5E0,7E0,8.387591E-3,3.8311657E-2,3.0206636E-4,-3.1256866E-2,2.4769275E-2,-1.9505464E-2,3.4155726E-2,-4.2197295E-3],"split_indices":[9,8,8,8,4,4,4,0,4,0,0,4,0,4,4,0,0,0,0,0,0,0,0],"split_type":[0,0,0,0,0,0,0,0,0,0,0,0,0,0,0,0,0,0,0,0,0,0,0],"sum_hessian":[7.542351E1,8.081438E0,6.734207E1,3.839603E0,4.241835E0,5.5442276E1,1.1899798E1,1.1834075E0,2.6561954E0,1.8830844E0,2.3587508E0,5.3482773E1,1.9595011E0,5.3747435E0,6.525055E0,1.5847822E0,1.071413E0,5.082232E1,2.6604552E0,1.9513433E0,3.4234E0,3.7496793E0,2.7753754E0],"tree_param":{"num_deleted":"0","num_feature":"15","num_nodes":"23","size_leaf_vector":"1"}},{"base_weights":[-4.3284643E-2,3.270522E-1,-8.184858E-2,4.9095944E-1,7.4919656E-2,-1.7711768E-1,9.197928E-2,7.5466227E-4,3.494311E-2,6.4960206E-3,-1.728607E-3,-4.7392495E-2,-4.231403E-1,1.7151983E-1,-2.9602675E-2,-6.7864405E-3,1.5634457E-2,-2.8640663E-2,2.786324E-2,5.9014E-3,3.0377943E-2],"categories":[],"categories_nodes":[],"categories_segments":[],"categories_sizes":[],"default_left":[0,0,0,0,0,0,0,0,0,0,0,0,0,0,0,0,0,0,0,0,0],"id":42,"left_children":[1,3,5,7,9,11,13,-1,-1,-1,-1,15,17,19,-1,-1,-1,-1,-1,-1,-1],"loss_changes":[1.124029E0,2.7093804E-1,1.18188E0,4.1808176E-1,2.9264394E-2,1.4419103E0,1.4931197E0,0E0,0E0,0E0,0E0,1.0322783E0,2.6213746E0,4.807915E-1,0E0,0E0,0E0,0E0,0E0,0E0,0E0],"parents":[2147483647,0,0,1,1,2,2,3,3,4,4,5,5,6,6,11,11,12,12,13,13],"right_children":[2,4,6,8,10,12,14,-1,-1,-1,-1,16,18,20,-1,-1,-1,-1,-1,-1,-1],"split_conditions":[7E0,7E0,6.5E0,4.5E0,4.5E0,4E0,1.4E1,7.5466227E-4,3.494311E-2,6.4960206E-3,-1.728607E-3,3.5E0,9E0,9E0,-2.9602675E-2,-6.7864405E-3,1.5634457E-2,-2.8640663E-2,2.786324E-2,5.9014E-3,3.0377943E-2],"split_indices":[8,9,4,4,4,4,8,0,0,0,0,4,8,8,0,0,0,0,0,0,0],"split_type":[0,0,0,0,0,0,0,0,0,0,0,0,0,0,0,0,0,0,0,0,0],"sum_hessian":[7.583011E1,6.4461093E0,6.9384E1,3.3324866E0,3.1136224E0,4.4807575E1,2.4576424E1,1.339384E0,1.9931027E0,1.9483407E0,1.1652818E0,3.0118853E1,1.4688723E1,2.2687529E1,1.8888947E0,2.4685896E1,5.4329576E0,1.3103953E1,1.5847694E0,2.1340258E1,1.3472707E0],"tree_param":{"num_deleted":"0","num_feature":"15","num_nodes":"21","size_leaf_vector":"1"}},{"base_weights":[-2.3693655E-2,9.950932E-3,-1.95529E-2,-1.78642E-2,2.5440943E-1,2.0993008E-1,-4.7500137E-2,-1.0282006E-2,4.9523214E-1,1.5868505E-2,-5.7017794E-3,-2.2258602E-2,2.8690454E-4,3.1809904E-2,5.535748E-4],"categories":[],"categories_nodes":[],"categories_segments":[],"categories_sizes":[],"default_left":[0,0,0,0,0,0,0,0,0,0,0,0,0,0,0],"id":43,"left_children":[1,3,-1,5,7,9,11,-1,13,-1,-1,-1,-1,-1,-1],"loss_changes":[9.4851273E-1,4.872501E-1,0E0,4.465653E-1,9.125856E-1,3.017573E-1,1.2313869E0,0E0,3.4081364E-1,0E0,0E0,0E0,0E0,0E0,0E0],"parents":[2147483647,0,0,1,1,3,3,4,4,5,5,6,6,8,8],"right_children":[2,4,-1,6,8,10,12,-1,14,-1,-1,-1,-1,-1,-1],"split_conditions":[1.05E1,1.1E1,-1.95529E-2,7E0,3.5E0,6.5E0,2E0,-1.0282006E-2,7.5E0,1.5868505E-2,-5.7017794E-3,-2.2258602E-2,2.8690454E-4,3.1809904E-2,5.535748E-4],"split_indices":[4,8,0,8,4,4,4,0,4,0,0,0,0,0,0],"split_type":[0,0,0,0,0,0,0,0,0,0,0,0,0,0,0],"sum_hessian":[7.542678E1,6.998977E1,5.43701E0,6.3671932E1,6.3178368E0,6.6296935E0,5.704224E1,2.221034E0,4.0968027E0,4.9938807E0,1.6358129E0,5.8656793E0,5.1176563E1,2.9297643E0,1.1670384E0],"tree_param":{"num_deleted":"0","num_feature":"15","num_nodes":"15","size_leaf_vector":"1"}},{"base_weights":[-3.0261438E-2,-3.0763513E-1,3.7908645E-3,1.1852635E-1,-5.665096E-1,-1.2522397E-2,2.2310521E-2,-2.5311744E-2,2.7188962E-2,-3.5966277E-2,-7.4138604E-3,2.5990749E-2,-3.6212972E-1,-2.0950707E-5,3.615022E-2,-8.415638E-3,-3.2115888E-2],"categories":[],"categories_nodes":[],"categories_segments":[],"categories_sizes":[],"default_left":[0,0,0,0,0,0,0,0,0,0,0,0,0,0,0,0,0],"id":44,"left_children":[1,3,5,7,9,11,-1,-1,-1,-1,-1,13,15,-1,-1,-1,-1],"loss_changes":[7.188651E-1,9.851014E-1,5.011625E-1,1.3303941E0,2.3522878E-1,9.1416675E-1,0E0,0E0,0E0,0E0,0E0,1.131673E0,2.576236E-1,0E0,0E0,0E0,0E0],"parents":[2147483647,0,0,1,1,2,2,3,3,4,4,5,5,11,11,12,12],"right_children":[2,4,6,8,10,12,-1,-1,-1,-1,-1,14,16,-1,-1,-1,-1],"split_conditions":[7E0,4E0,1.35E1,2E0,7.5E0,9.5E0,2.2310521E-2,-2.5311744E-2,2.7188962E-2,-3.5966277E-2,-7.4138604E-3,9E0,8E0,-2.0950707E-5,3.615022E-2,-8.415638E-3,-3.2115888E-2],"split_indices":[9,4,4,4,4,4,0,0,0,0,0,4,9,0,0,0,0],"split_type":[0,0,0,0,0,0,0,0,0,0,0,0,0,0,0,0,0],"sum_hessian":[7.4985466E1,7.320664E0,6.76648E1,2.9713492E0,4.3493147E0,6.619568E1,1.4691263E0,1.1262637E0,1.8450855E0,2.6581483E0,1.6911665E0,6.0460896E1,5.7347846E0,5.9216583E1,1.2443104E0,4.33607E0,1.3987147E0],"tree_param":{"num_deleted":"0","num_feature":"15","num_nodes":"17","size_leaf_vector":"1"}},{"base_weights":[-1.5841415E-2,1.6295372E-2,-2.688565E-1,-2.4700029E-2,5.538944E-1,-6.820372E-2,-4.1638777E-2,-2.3694468E-1,5.263063E-3,1.3303302E-2,3.839197E-2,1.5875591E-2,-1.9236389E-1,5.6687146E-3,-2.3164446E-2,1.2848156E-3,-2.1521332E-2,-2.605986E-2,7.4360617E-3],"categories":[],"categories_nodes":[],"categories_segments":[],"categories_sizes":[],"default_left":[0,0,0,0,0,0,0,0,0,0,0,0,0,0,0,0,0,0,0],"id":45,"left_children":[1,3,5,7,9,11,-1,13,15,-1,-1,-1,17,-1,-1,-1,-1,-1,-1],"loss_changes":[6.259082E-1,1.5292329E0,9.2443156E-1,4.1367057E-1,9.836912E-2,4.1954726E-1,0E0,6.9038665E-1,5.256914E-1,0E0,0E0,0E0,7.8246087E-1,0E0,0E0,0E0,0E0,0E0,0E0],"parents":[2147483647,0,0,1,1,2,2,3,3,4,4,5,5,7,7,8,8,12,12],"right_children":[2,4,6,8,10,12,-1,14,16,-1,-1,-1,18,-1,-1,-1,-1,-1,-1],"split_conditions":[9.5E0,8.5E0,8E0,7E0,9E0,1.05E1,-4.1638777E-2,4E0,8E0,1.3303302E-2,3.839197E-2,1.5875591E-2,1.25E1,5.6687146E-3,-2.3164446E-2,1.2848156E-3,-2.1521332E-2,-2.605986E-2,7.4360617E-3],"split_indices":[4,4,9,9,4,4,0,4,4,0,0,0,4,0,0,0,0,0,0],"split_type":[0,0,0,0,0,0,0,0,0,0,0,0,0,0,0,0,0,0,0],"sum_hessian":[7.543833E1,6.776654E1,7.671792E0,6.38515E1,3.9150348E0,6.4851885E0,1.1866035E0,7.0443945E0,5.680711E1,2.6259127E0,1.2891221E0,1.1999991E0,5.285189E0,2.9608755E0,4.083519E0,5.5161148E1,1.6459605E0,2.422067E0,2.8631222E0],"tree_param":{"num_deleted":"0","num_feature":"15","num_nodes":"19","size_leaf_vector":"1"}},{"base_weights":[-8.83826E-3,9.735606E-3,-1.6003026E-2,-8.896449E-3,1.7479369E-1,6.7082616E-3,-2.677475E-2,2.3409872E-1,-4.4584456E-3,-1.6848741E-2,-3.0830208E-5,1.6145064E-2,5.2823103E-3],"categories":[],"categories_nodes":[],"categories_segments":[],"categories_sizes":[],"default_left":[0,0,0,0,0,0,0,0,0,0,0,0,0],"id":46,"left_children":[1,3,-1,5,7,-1,9,11,-1,-1,-1,-1,-1],"loss_changes":[4.536031E-1,2.3070808E-1,0E0,1.7727529E-1,1.399467E-1,0E0,4.9635348E-1,3.9880753E-2,0E0,0E0,0E0,0E0,0E0],"parents":[2147483647,0,0,1,1,3,3,4,4,6,6,7,7],"right_children":[2,4,-1,6,8,-1,10,12,-1,-1,-1,-1,-1],"split_conditions":[1.1E1,8E0,-1.6003026E-2,7E0,1E1,6.7082616E-3,7E0,8E0,-4.4584456E-3,-1.6848741E-2,-3.0830208E-5,1.6145064E-2,5.2823103E-3],"split_indices":[9,9,0,8,8,0,9,8,0,0,0,0,0],"split_type":[0,0,0,0,0,0,0,0,0,0,0,0,0],"sum_hessian":[7.693085E1,7.351232E1,3.4185252E0,6.690595E1,6.6063643E0,6.7098174E0,6.0196136E1,5.4867754E0,1.1195889E0,3.7573118E0,5.6438824E1,2.349043E0,3.1377325E0],"tree_param":{"num_deleted":"0","num_feature":"15","num_nodes":"13","size_leaf_vector":"1"}},{"base_weights":[-2.437703E-2,-4.111326E-2,2.4207113E-2,-5.8703355E-2,2.0133153E-2,-1.2679577E-1,2.6819814E-2,5.714861E-3,-9.991336E-3,4.8292787E-3,-1.2205492E-2],"categories":[],"categories_nodes":[],"categories_segments":[],"categories_sizes":[],"default_left":[0,0,0,0,0,0,0,0,0,0,0],"id":47,"left_children":[1,3,-1,5,-1,7,9,-1,-1,-1,-1],"loss_changes":[6.635039E-1,6.023372E-1,0E0,4.2374444E-1,0E0,7.334717E-1,6.439409E-1,0E0,0E0,0E0,0E0],"parents":[2147483647,0,0,1,1,3,3,5,5,6,6],"right_children":[2,4,-1,6,-1,8,10,-1,-1,-1,-1],"split_conditions":[1.35E1,1.4E1,2.4207113E-2,5.5E0,2.0133153E-2,2.5E0,8E0,5.714861E-3,-9.991336E-3,4.8292787E-3,-1.2205492E-2],"split_indices":[4,9,0,4,0,4,8,0,0,0,0],"split_type":[0,0,0,0,0,0,0,0,0,0,0],"sum_hessian":[7.4622406E1,7.3134575E1,1.4878316E0,7.118087E1,1.953699E0,3.9360207E1,3.1820665E1,9.019518E0,3.0340689E1,2.5816332E1,6.0043335E0],"tree_param":{"num_deleted":"0","num_feature":"15","num_nodes":"11","size_leaf_vector":"1"}},{"base_weights":[-2.265424E-2,-6.0004763E-2,2.1996248E-1,-8.339504E-2,1.6037057E-1,3.9385214E-2,4.4075787E-2,-5.7169996E-2,-4.3194965E-1,2.9197812E-1,-9.896341E-3,2.0632559E-1,-2.1703875E-2,-4.544981E-3,1.683676E-2,5.875572E-4,-3.4157168E-2,-1.4068238E-3,2.4191678E-2,2.3855956E-2,2.588794E-3],"categories":[],"categories_nodes":[],"categories_segments":[],"categories_sizes":[],"default_left":[0,0,0,0,0,0,0,0,0,0,0,0,0,0,0,0,0,0,0,0,0],"id":48,"left_children":[1,3,5,7,9,-1,11,13,15,17,-1,19,-1,-1,-1,-1,-1,-1,-1,-1,-1],"loss_changes":[7.1344453E-1,3.6260352E-1,1.0161364E0,5.4119265E-1,3.8047135E-1,0E0,7.950514E-1,8.1088567E-1,4.7384232E-1,3.4579518E-1,0E0,2.878221E-1,0E0,0E0,0E0,0E0,0E0,0E0,0E0,0E0,0E0],"parents":[2147483647,0,0,1,1,2,2,3,3,4,4,6,6,7,7,8,8,9,9,11,11],"right_children":[2,4,6,8,10,-1,12,14,16,18,-1,20,-1,-1,-1,-1,-1,-1,-1,-1,-1],"split_conditions":[9E0,1.1E1,9.5E0,1.1E1,7E0,3.9385214E-2,8E0,8E0,4E0,3.5E0,-9.896341E-3,1.05E1,-2.1703875E-2,-4.544981E-3,1.683676E-2,5.875572E-4,-3.4157168E-2,-1.4068238E-3,2.4191678E-2,2.3855956E-2,2.588794E-3],"split_indices":[4,8,4,9,4,0,9,9,4,4,0,4,0,0,0,0,0,0,0,0,0],"split_type":[0,0,0,0,0,0,0,0,0,0,0,0,0,0,0,0,0,0,0,0,0],"sum_hessian":[7.627394E1,6.675047E1,9.52347E0,6.0907433E1,5.843039E0,1.4297919E0,8.093678E0,5.7728027E1,3.1794033E0,4.408743E0,1.4342961E0,6.4675617E0,1.6261165E0,5.38833E1,3.8447263E0,1.4938792E0,1.685524E0,1.9719126E0,2.4368303E0,1.5916331E0,4.8759284E0],"tree_param":{"num_deleted":"0","num_feature":"15","num_nodes":"21","size_leaf_vector":"1"}},{"base_weights":[1.8211447E-2,-2.9400796E-2,2.5868E-1,-7.335696E-2,3.1258732E-1,4.5282942E-1,-1.9408679E-2,-1.8965378E-1,1.4131491E-2,3.87208E-2,5.339111E-2,3.7097927E-2,1.447468E-1,1.4189628E-2,-1.1279418E-2,2.7413419E-2,-4.841981E-3,-1.0764756E-2,2.3955282E-2,-2.597099E-3,2.3547802E-2],"categories":[],"categories_nodes":[],"categories_segments":[],"categories_sizes":[],"default_left":[0,0,0,0,0,0,0,0,0,0,0,0,0,0,0,0,0,0,0,0,0],"id":49,"left_children":[1,3,5,7,9,11,-1,13,15,-1,17,-1,19,-1,-1,-1,-1,-1,-1,-1,-1],"loss_changes":[9.019308E-1,1.0165809E0,1.8098994E0,6.06868E-1,8.825771E-1,8.251951E-1,0E0,4.989251E-1,2.1169388E0,0E0,7.914879E-1,0E0,4.293907E-1,0E0,0E0,0E0,0E0,0E0,0E0,0E0,0E0],"parents":[2147483647,0,0,1,1,2,2,3,3,4,4,5,5,7,7,8,8,10,10,12,12],"right_children":[2,4,6,8,10,12,-1,14,16,-1,18,-1,20,-1,-1,-1,-1,-1,-1,-1,-1],"split_conditions":[8.5E0,8E0,8E0,3.5E0,3E0,1.05E1,-1.9408679E-2,1E0,4E0,3.87208E-2,6.5E0,3.7097927E-2,1.35E1,1.4189628E-2,-1.1279418E-2,2.7413419E-2,-4.841981E-3,-1.0764756E-2,2.3955282E-2,-2.597099E-3,2.3547802E-2],"split_indices":[4,9,9,4,4,4,0,4,4,0,4,0,4,0,0,0,0,0,0,0,0],"split_type":[0,0,0,0,0,0,0,0,0,0,0,0,0,0,0,0,0,0,0,0,0],"sum_hessian":[7.711217E1,6.5100204E1,1.2011961E1,5.8381813E1,6.7183905E0,9.46965E0,2.5423112E0,2.4562958E1,3.3818855E1,1.7005816E0,5.017809E0,4.15859E0,5.3110604E0,1.246221E0,2.3316738E1,5.139633E0,2.8679222E1,3.3792784E0,1.6385304E0,3.8378117E0,1.4732485E0],"tree_param":{"num_deleted":"0","num_feature":"15","num_nodes":"21","size_leaf_vector":"1"}},{"base_weights":[3.8111722E-3,-4.672307E-2,2.5019842E-1,-2.6949337E-2,-2.2793889E-2,3.810484E-1,-2.563711E-1,-5.8383796E-2,2.0326512E-1,3.163156E-2,-3.17946E-2,-2.0568164E-2,8.4868533E-4,-6.0786046E-3,3.318304E-3,2.3933318E-2,-1.2145692E-2,-1.4196293E-2,6.221024E-3],"categories":[],"categories_nodes":[],"categories_segments":[],"categories_sizes":[],"default_left":[0,0,0,0,0,0,0,0,0,0,0,0,0,0,0,0,0,0,0],"id":50,"left_children":[1,3,5,7,-1,9,11,13,15,-1,17,-1,-1,-1,-1,-1,-1,-1,-1],"loss_changes":[9.6310335E-1,5.0753266E-1,9.701496E-1,4.6308216E-1,0E0,1.1483449E0,1.4678147E-1,4.4664127E-1,1.0641575E0,0E0,2.3482855E-1,0E0,0E0,0E0,0E0,0E0,0E0,0E0,0E0],"parents":[2147483647,0,0,1,1,2,2,3,3,5,5,6,6,7,7,8,8,10,10],"right_children":[2,4,6,8,-1,10,12,14,16,-1,18,-1,-1,-1,-1,-1,-1,-1,-1],"split_conditions":[8.5E0,8E0,8E0,8E0,-2.2793889E-2,1.1E1,1E1,5.5E0,5.5E0,3.163156E-2,1.25E1,-2.0568164E-2,8.4868533E-4,-6.0786046E-3,3.318304E-3,2.3933318E-2,-1.2145692E-2,-1.4196293E-2,6.221024E-3],"split_indices":[4,4,9,9,0,4,4,4,4,0,4,0,0,0,0,0,0,0,0],"split_type":[0,0,0,0,0,0,0,0,0,0,0,0,0,0,0,0,0,0,0],"sum_hessian":[7.541264E1,6.3250317E1,1.2162328E1,6.1351185E1,1.8991302E0,9.862556E0,2.2997713E0,5.4637184E1,6.7139997E0,5.7973356E0,4.065221E0,1.145388E0,1.1543832E0,3.628406E1,1.8353125E1,4.1064844E0,2.6075149E0,1.2424209E0,2.8228002E0],"tree_param":{"num_deleted":"0","num_feature":"15","num_nodes":"19","size_leaf_vector":"1"}},{"base_weights":[-2.1906173E-2,1.689565E-3,-2.649587E-1,-2.2005472E-2,3.7087712E-1,-1.8389525E-2,3.2388114E-3,-2.6491927E-3,-3.3723786E-1,3.8215514E-2,-3.2741313E-3,7.2853426E-3,-1.5711021E-3,1.0077651E-2,-3.3193998E-2],"categories":[],"categories_nodes":[],"categories_segments":[],"categories_sizes":[],"default_left":[0,0,0,0,0,0,0,0,0,0,0,0,0,0,0],"id":51,"left_children":[1,3,5,7,9,-1,-1,11,13,-1,-1,-1,-1,-1,-1],"loss_changes":[4.423835E-1,6.313106E-1,2.552522E-1,4.1330314E-1,7.9722565E-1,0E0,0E0,2.8188008E-1,8.235388E-1,0E0,0E0,0E0,0E0,0E0,0E0],"parents":[2147483647,0,0,1,1,2,2,3,3,4,4,7,7,8,8],"right_children":[2,4,6,8,10,-1,-1,12,14,-1,-1,-1,-1,-1,-1],"split_conditions":[1.05E1,9E0,1.35E1,1.1E1,9.5E0,-1.8389525E-2,3.2388114E-3,2.5E0,4E0,3.8215514E-2,-3.2741313E-3,7.2853426E-3,-1.5711021E-3,1.0077651E-2,-3.3193998E-2],"split_indices":[4,4,4,9,4,0,0,4,4,0,0,0,0,0,0],"split_type":[0,0,0,0,0,0,0,0,0,0,0,0,0,0,0],"sum_hessian":[7.605938E1,7.0234055E1,5.8253307E0,6.688187E1,3.352188E0,4.3525295E0,1.472801E0,6.396275E1,2.919114E0,1.3675816E0,1.9846065E0,9.729958E0,5.423279E1,1.2463063E0,1.6728077E0],"tree_param":{"num_deleted":"0","num_feature":"15","num_nodes":"15","size_leaf_vector":"1"}},{"base_weights":[7.966205E-3,1.0771808E-1,-6.836217E-2,5.02213E-2,1.5467982E-2,-2.743255E-2,-3.0338494E-2,1.6100098E-1,-2.2211326E-2,1.3264424E-2,-2.47323E-2,2.4405632E-3,2.2682322E-2,4.6855523E-3,-2.0359805E-2,2.8830029E-3,-1.8484384E-2],"categories":[],"categories_nodes":[],"categories_segments":[],"categories_sizes":[],"default_left":[0,0,0,0,0,0,0,0,0,0,0,0,0,0,0,0,0],"id":52,"left_children":[1,3,5,7,-1,-1,9,11,13,15,-1,-1,-1,-1,-1,-1,-1],"loss_changes":[5.938688E-1,3.761006E-1,7.914778E-1,2.2406802E-1,0E0,0E0,8.581345E-1,3.3851245E-1,8.188828E-1,6.91612E-1,0E0,0E0,0E0,0E0,0E0,0E0,0E0],"parents":[2147483647,0,0,1,1,2,2,3,3,6,6,7,7,8,8,9,9],"right_children":[2,4,6,8,-1,-1,10,12,14,16,-1,-1,-1,-1,-1,-1,-1],"split_conditions":[4E0,3.5E0,4.5E0,2.5E0,1.5467982E-2,-2.743255E-2,1E1,8E0,8E0,1.4E1,-2.47323E-2,2.4405632E-3,2.2682322E-2,4.6855523E-3,-2.0359805E-2,2.8830029E-3,-1.8484384E-2],"split_indices":[4,4,4,4,0,0,9,8,8,8,0,0,0,0,0,0,0],"split_type":[0,0,0,0,0,0,0,0,0,0,0,0,0,0,0,0,0],"sum_hessian":[7.603083E1,3.2780052E1,4.3250774E1,2.6478846E1,6.3012085E0,2.187727E0,4.106305E1,9.984941E0,1.6493904E1,3.842592E1,2.6371298E0,8.061316E0,1.9236248E0,1.3258298E1,3.2356071E0,3.5195175E1,3.2307434E0],"tree_param":{"num_deleted":"0","num_feature":"15","num_nodes":"17","size_leaf_vector":"1"}},{"base_weights":[-1.6745517E-2,-2.1618132E-1,3.1803764E-2,-3.5456666E-1,3.1870898E-2,9.039285E-2,-7.510929E-2,1.3687736E-2,-4.4087616E-1,2.5830656E-2,2.6773045E-2,-1.3857782E-1,1.8039277E-2,-1.2334612E-2,-3.385486E-2,5.372753E-3,-3.0738153E-3,-2.795123E-2,-3.8369154E-3],"categories":[],"categories_nodes":[],"categories_segments":[],"categories_sizes":[],"default_left":[0,0,0,0,0,0,0,0,0,0,0,0,0,0,0,0,0,0,0],"id":53,"left_children":[1,3,5,7,-1,9,11,-1,13,15,-1,17,-1,-1,-1,-1,-1,-1,-1],"loss_changes":[7.3949295E-1,1.990974E0,3.9341795E-1,8.5277796E-1,0E0,1.1449287E0,6.6961193E-1,0E0,3.9498162E-1,2.650676E-1,0E0,4.8419073E-1,0E0,0E0,0E0,0E0,0E0,0E0,0E0],"parents":[2147483647,0,0,1,1,2,2,3,3,5,5,6,6,8,8,9,9,11,11],"right_children":[2,4,6,8,-1,10,12,-1,14,16,-1,18,-1,-1,-1,-1,-1,-1,-1],"split_conditions":[3E0,8E0,7E0,1E0,3.1870898E-2,6.5E0,1.3E1,1.3687736E-2,2.5E0,4E0,2.6773045E-2,7E0,1.8039277E-2,-1.2334612E-2,-3.385486E-2,5.372753E-3,-3.0738153E-3,-2.795123E-2,-3.8369154E-3],"split_indices":[4,9,4,4,0,4,4,0,4,4,0,8,0,0,0,0,0,0,0],"split_type":[0,0,0,0,0,0,0,0,0,0,0,0,0,0,0,0,0,0,0],"sum_hessian":[7.466437E1,1.394144E1,6.0722927E1,1.2499625E1,1.4418149E0,3.9326344E1,2.1396585E1,1.2473447E0,1.125228E1,3.526831E1,4.058033E0,1.9272495E1,2.1240902E0,7.297636E0,3.9546444E0,1.810807E1,1.7160238E1,1.4402581E0,1.7832237E1],"tree_param":{"num_deleted":"0","num_feature":"15","num_nodes":"19","size_leaf_vector":"1"}},{"base_weights":[-3.143789E-2,-2.1880005E-2,-1.9150333E-2,2.9271838E-1,-5.1500335E-2,5.888343E-1,-3.554876E-2,-4.2244646E-1,-2.1064034E-2,3.790951E-2,1.241216E-2,1.1569289E-2,-2.036289E-2,-2.1296784E-3,-3.1120246E-2,-2.7294504E-3,1.0265003E-2],"categories":[],"categories_nodes":[],"categories_segments":[],"categories_sizes":[],"default_left":[0,0,0,0,0,0,0,0,0,0,0,0,0,0,0,0,0],"id":54,"left_children":[1,-1,3,5,7,9,11,13,15,-1,-1,-1,-1,-1,-1,-1,-1],"loss_changes":[3.715421E-1,0E0,7.7109915E-1,7.200466E-1,7.6723313E-1,3.317523E-2,5.262432E-1,3.6543632E-1,5.013209E-1,0E0,0E0,0E0,0E0,0E0,0E0,0E0,0E0],"parents":[2147483647,0,0,2,2,3,3,4,4,5,5,6,6,7,7,8,8],"right_children":[2,-1,4,6,8,10,12,14,16,-1,-1,-1,-1,-1,-1,-1,-1],"split_conditions":[6E0,-2.1880005E-2,7E0,7E0,7E0,4E0,6E0,4E0,9E0,3.790951E-2,1.241216E-2,1.1569289E-2,-2.036289E-2,-2.1296784E-3,-3.1120246E-2,-2.7294504E-3,1.0265003E-2],"split_indices":[8,0,8,9,9,4,4,4,4,0,0,0,0,0,0,0,0],"split_type":[0,0,0,0,0,0,0,0,0,0,0,0,0,0,0,0,0],"sum_hessian":[7.5125435E1,1.1896182E0,7.3935814E1,6.192155E0,6.774366E1,2.8381839E0,3.353971E0,4.160263E0,6.35834E1,1.076702E0,1.7614818E0,2.1718287E0,1.1821421E0,1.8530715E0,2.3071916E0,5.604227E1,7.541128E0],"tree_param":{"num_deleted":"0","num_feature":"15","num_nodes":"17","size_leaf_vector":"1"}},{"base_weights":[1.667022E-2,4.166807E-2,-2.217786E-2,-2.1946166E-1,7.54932E-2,1.983922E-1,-2.840955E-2,9.6672796E-2,-1.6065884E-2,-2.1241013E-2,2.6154367E-2,3.3535906E-3,2.6928077E-2,-4.564542E-3,1.7974454E-3],"categories":[],"categories_nodes":[],"categories_segments":[],"categories_sizes":[],"default_left":[0,0,0,0,0,0,0,0,0,0,0,0,0,0,0],"id":55,"left_children":[1,3,-1,5,7,9,-1,11,13,-1,-1,-1,-1,-1,-1],"loss_changes":[9.2271334E-1,6.831019E-1,0E0,1.4110446E0,1.3254869E-1,1.1923845E0,0E0,6.83346E-1,5.6292925E-2,0E0,0E0,0E0,0E0,0E0,0E0],"parents":[2147483647,0,0,1,1,3,3,4,4,5,5,7,7,8,8],"right_children":[2,4,-1,6,8,10,-1,12,14,-1,-1,-1,-1,-1,-1],"split_conditions":[1.1E1,7E0,-2.217786E-2,7E0,8E0,6E0,-2.840955E-2,8E0,9E0,-2.1241013E-2,2.6154367E-2,3.3535906E-3,2.6928077E-2,-4.564542E-3,1.7974454E-3],"split_indices":[9,9,0,8,8,8,0,9,8,0,0,0,0,0,0],"split_type":[0,0,0,0,0,0,0,0,0,0,0,0,0,0,0],"sum_hessian":[7.759671E1,7.4461685E1,3.135021E0,7.9098196E0,6.6551865E1,3.7943997E0,4.11542E0,5.4003773E1,1.2548094E1,1.1941016E0,2.600298E0,5.169279E1,2.3109825E0,4.820903E0,7.727191E0],"tree_param":{"num_deleted":"0","num_feature":"15","num_nodes":"15","size_leaf_vector":"1"}},{"base_weights":[3.0050153E-2,-1.1157123E-2,3.190829E-1,1.771166E-1,-4.186857E-2,-1.4532441E-3,4.9720508E-1,9.412147E-2,2.06548E-2,-1.0362739E-2,-3.8088194E-1,3.7151497E-2,1.7550966E-1,1.3285949E-2,1.3162092E-3,-2.0623337E-2,3.2858158E-4,-3.5640217E-2,-3.659239E-3,2.7612785E-2,-7.953797E-3],"categories":[],"categories_nodes":[],"categories_segments":[],"categories_sizes":[],"default_left":[0,0,0,0,0,0,0,0,0,0,0,0,0,0,0,0,0,0,0,0,0],"id":56,"left_children":[1,3,5,7,9,-1,11,13,-1,15,17,-1,19,-1,-1,-1,-1,-1,-1,-1,-1],"loss_changes":[8.940873E-1,3.9138716E-1,5.9511113E-1,1.4726186E-1,6.14498E-1,0E0,3.6381185E-1,8.987341E-2,0E0,3.704608E-1,4.4782132E-1,0E0,5.9412014E-1,0E0,0E0,0E0,0E0,0E0,0E0,0E0,0E0],"parents":[2147483647,0,0,1,1,2,2,3,3,4,4,6,6,7,7,9,9,10,10,12,12],"right_children":[2,4,6,8,10,-1,12,14,-1,16,18,-1,20,-1,-1,-1,-1,-1,-1,-1,-1],"split_conditions":[9E0,2.5E0,4E0,8E0,8E0,-1.4532441E-3,7E0,1E0,2.06548E-2,6E0,3.5E0,3.7151497E-2,1.4E1,1.3285949E-2,1.3162092E-3,-2.0623337E-2,3.2858158E-4,-3.5640217E-2,-3.659239E-3,2.7612785E-2,-7.953797E-3],"split_indices":[8,4,4,8,8,0,4,4,0,8,4,0,8,0,0,0,0,0,0,0,0],"split_type":[0,0,0,0,0,0,0,0,0,0,0,0,0,0,0,0,0,0,0,0,0],"sum_hessian":[7.3769806E1,6.5406265E1,8.363545E0,8.504301E0,5.6901962E1,3.1139727E0,5.2495728E0,7.326418E0,1.1778833E0,5.3006435E1,3.8955271E0,2.2332752E0,3.0162976E0,1.2481041E0,6.078314E0,1.1982154E0,5.180822E1,1.2406367E0,2.6548903E0,1.1127577E0,1.9035399E0],"tree_param":{"num_deleted":"0","num_feature":"15","num_nodes":"21","size_leaf_vector":"1"}},{"base_weights":[-2.3118356E-2,-1.7195678E-1,5.3930044E-2,-2.3462269E-1,3.28972E-1,2.4976397E-2,-1.3034252E-2,-1.7410953E-2,-4.285294E-3,1.9949209E-2,5.5850786E-3,-2.4372865E-2,2.755043E-2,4.1510668E-3,-1.462574E-2],"categories":[],"categories_nodes":[],"categories_segments":[],"categories_sizes":[],"default_left":[0,0,0,0,0,0,0,0,0,0,0,0,0,0,0],"id":57,"left_children":[1,3,5,7,9,-1,11,-1,-1,-1,-1,-1,13,-1,-1],"loss_changes":[8.981073E-1,9.145717E-1,1.5531119E0,3.8111448E-1,6.8841875E-3,0E0,8.997878E-1,0E0,0E0,0E0,0E0,0E0,7.9398924E-1,0E0,0E0],"parents":[2147483647,0,0,1,1,2,2,3,3,4,4,6,6,12,12],"right_children":[2,4,6,8,10,-1,12,-1,-1,-1,-1,-1,14,-1,-1],"split_conditions":[3.5E0,8E0,4E0,3E0,2E0,2.4976397E-2,4.5E0,-1.7410953E-2,-4.285294E-3,1.9949209E-2,5.5850786E-3,-2.4372865E-2,8E0,4.1510668E-3,-1.462574E-2],"split_indices":[4,9,4,4,4,0,4,0,0,0,0,0,9,0,0],"split_type":[0,0,0,0,0,0,0,0,0,0,0,0,0,0,0],"sum_hessian":[7.6507164E1,2.5675894E1,5.083127E1,2.3293512E1,2.3823812E0,5.796987E0,4.503428E1,1.2454589E1,1.0838923E1,1.1692574E0,1.2131238E0,2.681182E0,4.2353096E1,3.6728283E1,5.624814E0],"tree_param":{"num_deleted":"0","num_feature":"15","num_nodes":"15","size_leaf_vector":"1"}},{"base_weights":[4.8279244E-2,3.0030582E-2,2.6199067E-2,5.1777907E-2,-1.815764E-2,1.15820905E-2,2.9858938E-1,-3.3728674E-3,3.5591063E-3,2.315457E-2,-1.6838036E-3],"categories":[],"categories_nodes":[],"categories_segments":[],"categories_sizes":[],"default_left":[0,0,0,0,0,0,0,0,0,0,0],"id":58,"left_children":[1,3,-1,5,-1,7,9,-1,-1,-1,-1],"loss_changes":[6.2096614E-1,6.318532E-1,0E0,6.792258E-1,0E0,2.884664E-1,5.401555E-1,0E0,0E0,0E0,0E0],"parents":[2147483647,0,0,1,1,3,3,5,5,6,6],"right_children":[2,4,-1,6,-1,8,10,-1,-1,-1,-1],"split_conditions":[1.35E1,1.1E1,2.6199067E-2,8E0,-1.815764E-2,3.5E0,1E1,-3.3728674E-3,3.5591063E-3,2.315457E-2,-1.6838036E-3],"split_indices":[4,4,0,4,0,4,4,0,0,0,0],"split_type":[0,0,0,0,0,0,0,0,0,0,0],"sum_hessian":[7.234488E1,7.0696E1,1.6488781E0,6.7813484E1,2.8825133E0,5.9216404E1,8.59708E0,2.54E1,3.3816406E1,5.4868464E0,3.1102338E0],"tree_param":{"num_deleted":"0","num_feature":"15","num_nodes":"11","size_leaf_vector":"1"}},{"base_weights":[-2.006763E-2,1.416672E-3,-1.99911E-2,-2.1164263E-2,1.7446917E-1,-1.4924702E-1,-2.5871878E-3,4.198461E-2,-8.02688E-3,9.471261E-3,-2.3311904E-2,5.4121664E-4,-7.3259524E-3],"categories":[],"categories_nodes":[],"categories_segments":[],"categories_sizes":[],"default_left":[0,0,0,0,0,0,0,0,0,0,0,0,0],"id":59,"left_children":[1,3,-1,5,7,9,11,-1,-1,-1,-1,-1,-1],"loss_changes":[6.3006175E-1,2.929432E-1,0E0,1.5753227E-1,2.062944E0,9.889448E-1,1.15437254E-1,0E0,0E0,0E0,0E0,0E0,0E0],"parents":[2147483647,0,0,1,1,3,3,4,4,5,5,6,6],"right_children":[2,4,-1,6,8,10,12,-1,-1,-1,-1,-1,-1],"split_conditions":[1.1E1,9E0,-1.99911E-2,7E0,1.4E1,7E0,8E0,4.198461E-2,-8.02688E-3,9.471261E-3,-2.3311904E-2,5.4121664E-4,-7.3259524E-3],"split_indices":[9,8,0,9,8,8,8,0,0,0,0,0,0],"split_type":[0,0,0,0,0,0,0,0,0,0,0,0,0],"sum_hessian":[7.6155785E1,7.302095E1,3.1348329E0,6.536892E1,7.652031E0,7.3891625E0,5.7979755E1,2.0583236E0,5.593707E0,3.7669704E0,3.6221921E0,5.388369E1,4.0960674E0],"tree_param":{"num_deleted":"0","num_feature":"15","num_nodes":"13","size_leaf_vector":"1"}},{"base_weights":[-7.127552E-2,-1.0221542E-1,1.3507837E-1,1.3035476E-1,-1.2493449E-1,4.9284053E-1,-6.0659483E-2,2.805202E-1,-1.1933294E-2,-3.91842E-1,-8.925396E-2,3.3255886E-2,9.610637E-3,-2.1632223E-1,1.8479091E-1,4.1275667E-3,1.9427713E-2,-3.1572063E-2,8.210859E-3,1.4485779E-2,-5.803389E-3,-4.171399E-3,-1.6332094E-2,1.4498896E-2,8.90203E-4],"categories":[],"categories_nodes":[],"categories_segments":[],"categories_sizes":[],"default_left":[0,0,0,0,0,0,0,0,0,0,0,0,0,0,0,0,0,0,0,0,0,0,0,0,0],"id":60,"left_children":[1,3,5,7,9,11,13,15,-1,17,19,-1,-1,21,23,-1,-1,-1,-1,-1,-1,-1,-1,-1,-1],"loss_changes":[5.038912E-1,3.7199724E-1,7.609355E-1,4.2606473E-1,5.539619E-1,6.903118E-2,3.3180305E-1,7.6269716E-2,0E0,1.035936E0,6.01089E-1,0E0,0E0,4.802595E-2,5.6374513E-2,0E0,0E0,0E0,0E0,0E0,0E0,0E0,0E0,0E0,0E0],"parents":[2147483647,0,0,1,1,2,2,3,3,4,4,5,5,6,6,7,7,9,9,10,10,13,13,14,14],"right_children":[2,4,6,8,10,12,14,16,-1,18,20,-1,-1,22,24,-1,-1,-1,-1,-1,-1,-1,-1,-1,-1],"split_conditions":[9E0,7E0,1.05E1,6E0,2E0,9.5E0,1.3E1,3.5E0,-1.1933294E-2,8E0,2.5E0,3.3255886E-2,9.610637E-3,1.2E1,1.4E1,4.1275667E-3,1.9427713E-2,-3.1572063E-2,8.210859E-3,1.4485779E-2,-5.803389E-3,-4.171399E-3,-1.6332094E-2,1.4498896E-2,8.90203E-4],"split_indices":[4,8,4,4,4,4,4,4,0,8,4,0,0,4,4,0,0,0,0,0,0,0,0,0,0],"split_type":[0,0,0,0,0,0,0,0,0,0,0,0,0,0,0,0,0,0,0,0,0,0,0,0,0],"sum_hessian":[7.576073E1,6.632142E1,9.439315E0,5.48055E0,6.0840866E1,2.8013163E0,6.637998E0,4.065857E0,1.4146925E0,5.997172E0,5.4843697E1,1.0100623E0,1.7912539E0,4.1345625E0,2.5034354E0,2.058269E0,2.0075881E0,4.0964823E0,1.9006896E0,2.9761364E0,5.1867558E1,2.6720147E0,1.4625481E0,1.0840489E0,1.4193866E0],"tree_param":{"num_deleted":"0","num_feature":"15","num_nodes":"25","size_leaf_vector":"1"}},{"base_weights":[2.6842834E-2,5.781741E-2,-5.6100893E-1,2.4008048E-1,3.818864E-2,5.5992306E-4,-4.6121255E-2,5.172567E-1,-2.0173633E-2,-4.1724342E-1,7.609731E-2,3.522755E-2,6.571499E-3,1.8114409E-4,-3.185954E-2,-5.7106186E-4,1.1565651E-2],"categories":[],"categories_nodes":[],"categories_segments":[],"categories_sizes":[],"default_left":[0,0,0,0,0,0,0,0,0,0,0,0,0,0,0,0,0],"id":61,"left_children":[1,3,5,7,9,-1,-1,11,-1,13,15,-1,-1,-1,-1,-1,-1],"loss_changes":[1.4123998E0,2.51639E-1,8.141501E-1,1.4392369E0,1.188522E0,0E0,0E0,2.8750408E-1,0E0,4.9317127E-1,8.543595E-1,0E0,0E0,0E0,0E0,0E0,0E0],"parents":[2147483647,0,0,1,1,2,2,3,3,4,4,7,7,9,9,10,10],"right_children":[2,4,6,8,10,-1,-1,12,-1,14,16,-1,-1,-1,-1,-1,-1],"split_conditions":[1.1E1,7E0,4E0,6.5E0,7E0,5.5992306E-4,-4.6121255E-2,7E0,-2.0173633E-2,4E0,6.5E0,3.522755E-2,6.571499E-3,1.8114409E-4,-3.185954E-2,-5.7106186E-4,1.1565651E-2],"split_indices":[9,8,4,4,9,0,0,9,0,4,4,0,0,0,0,0,0],"split_type":[0,0,0,0,0,0,0,0,0,0,0,0,0,0,0,0,0],"sum_hessian":[7.478695E1,7.19001E1,2.8868518E0,5.8985004E0,6.60016E1,1.4926496E0,1.3942024E0,4.259987E0,1.6385136E0,4.302702E0,6.16989E1,2.3117151E0,1.9482716E0,1.8144E0,2.488302E0,4.0045574E1,2.1653326E1],"tree_param":{"num_deleted":"0","num_feature":"15","num_nodes":"17","size_leaf_vector":"1"}},{"base_weights":[-5.2617148E-2,-7.98562E-2,1.8820195E-1,-5.0201766E-2,-3.4246817E-1,-1.5139759E-2,4.624193E-1,6.7003064E-2,-1.3410611E-1,-7.07322E-2,-3.7119508E-2,4.007341E-2,1.9565152E-1,-5.720311E-3,1.0972518E-2,-2.5503337E-2,-4.6709736E-4,-1.4594515E-2,1.4376377E-2,-1.3343459E-4,1.4112584E-2],"categories":[],"categories_nodes":[],"categories_segments":[],"categories_sizes":[],"default_left":[0,0,0,0,0,0,0,0,0,0,0,0,0,0,0,0,0,0,0,0,0],"id":62,"left_children":[1,3,5,7,9,-1,11,13,15,17,-1,-1,19,-1,-1,-1,-1,-1,-1,-1,-1],"loss_changes":[5.104425E-1,5.166606E-1,1.2134172E0,6.262444E-1,6.846992E-1,0E0,3.4165943E-1,7.677657E-1,1.7267283E0,4.9153697E-1,0E0,0E0,7.644667E-2,0E0,0E0,0E0,0E0,0E0,0E0,0E0,0E0],"parents":[2147483647,0,0,1,1,2,2,3,3,4,4,6,6,7,7,8,8,9,9,12,12],"right_children":[2,4,6,8,10,-1,12,14,16,18,-1,-1,20,-1,-1,-1,-1,-1,-1,-1,-1],"split_conditions":[1.1E1,8E0,3.5E0,4E0,5.5E0,-1.5139759E-2,5E0,3E0,5.5E0,3.5E0,-3.7119508E-2,4.007341E-2,6.5E0,-5.720311E-3,1.0972518E-2,-2.5503337E-2,-4.6709736E-4,-1.4594515E-2,1.4376377E-2,-1.3343459E-4,1.4112584E-2],"split_indices":[8,8,4,4,4,0,4,4,4,4,0,0,4,0,0,0,0,0,0,0,0],"split_type":[0,0,0,0,0,0,0,0,0,0,0,0,0,0,0,0,0,0,0,0,0],"sum_hessian":[7.452397E1,6.7551605E1,6.972366E0,6.1767868E1,5.783734E0,2.4612262E0,4.51114E0,2.5854086E1,3.5913784E1,4.144515E0,1.6392186E0,1.1038429E0,3.407297E0,1.1919569E1,1.3934516E1,8.179044E0,2.773474E1,2.6771395E0,1.4673756E0,1.3302101E0,2.077087E0],"tree_param":{"num_deleted":"0","num_feature":"15","num_nodes":"21","size_leaf_vector":"1"}},{"base_weights":[-1.8847136E-2,-2.634058E-1,1.0653109E-2,1.2569399E-1,-5.92174E-1,-6.322421E-3,2.2270745E-2,-2.0307608E-2,4.37272E-1,-9.147472E-3,-3.7175935E-2,4.1851114E-2,-2.709E-1,3.574559E-2,3.1593323E-4,9.520788E-5,2.3501834E-2,-5.2559604E-3,-3.5994373E-2],"categories":[],"categories_nodes":[],"categories_segments":[],"categories_sizes":[],"default_left":[0,0,0,0,0,0,0,0,0,0,0,0,0,0,0,0,0,0,0],"id":63,"left_children":[1,3,5,7,9,11,-1,-1,13,-1,-1,15,17,-1,-1,-1,-1,-1,-1],"loss_changes":[5.4423255E-1,1.1127928E0,5.041571E-1,9.303162E-1,1.4730287E-1,8.571744E-1,0E0,0E0,3.9581364E-1,0E0,0E0,9.741943E-1,6.951435E-1,0E0,0E0,0E0,0E0,0E0,0E0],"parents":[2147483647,0,0,1,1,2,2,3,3,4,4,5,5,8,8,11,11,12,12],"right_children":[2,4,6,8,10,12,-1,-1,14,-1,-1,16,18,-1,-1,-1,-1,-1,-1],"split_conditions":[7E0,7E0,1.35E1,6E0,4E0,8E0,2.2270745E-2,-2.0307608E-2,4E0,-9.147472E-3,-3.7175935E-2,1.4E1,8E0,3.574559E-2,3.1593323E-4,9.520788E-5,2.3501834E-2,-5.2559604E-3,-3.5994373E-2],"split_indices":[9,8,4,8,4,4,0,0,4,0,0,8,8,0,0,0,0,0,0],"split_type":[0,0,0,0,0,0,0,0,0,0,0,0,0,0,0,0,0,0,0],"sum_hessian":[7.404656E1,7.117032E0,6.692953E1,3.5423336E0,3.5746984E0,6.5362854E1,1.5666736E0,1.196479E0,2.3458548E0,1.5614586E0,2.0132399E0,5.600707E1,9.355788E0,1.0259702E0,1.3198844E0,5.2146576E1,3.860493E0,7.734196E0,1.6215924E0],"tree_param":{"num_deleted":"0","num_feature":"15","num_nodes":"19","size_leaf_vector":"1"}},{"base_weights":[2.8563522E-2,-1.9721916E-2,4.068074E-2,3.2877347E-1,1.2289899E-2,3.1488255E-2,9.0172455E-2,-3.7401712E-1,5.170634E-2,-1.0987804E-2,1.4192658E-2,-2.3022259E-2,3.9595386E-4,2.9932946E-2,9.791249E-4],"categories":[],"categories_nodes":[],"categories_segments":[],"categories_sizes":[],"default_left":[0,0,0,0,0,0,0,0,0,0,0,0,0,0,0],"id":64,"left_children":[1,-1,3,5,7,-1,9,11,13,-1,-1,-1,-1,-1,-1],"loss_changes":[4.037646E-1,0E0,6.0484684E-1,4.20025E-1,1.0670097E0,0E0,3.5474592E-1,2.1794134E-1,1.1006886E0,0E0,0E0,0E0,0E0,0E0,0E0],"parents":[2147483647,0,0,2,2,3,3,4,4,6,6,7,7,8,8],"right_children":[2,-1,4,6,8,-1,10,12,14,-1,-1,-1,-1,-1,-1],"split_conditions":[6E0,-1.9721916E-2,7E0,4E0,2E0,3.1488255E-2,5E0,8E0,2.5E0,-1.0987804E-2,1.4192658E-2,-2.3022259E-2,3.9595386E-4,2.9932946E-2,9.791249E-4],"split_indices":[8,0,8,4,4,0,4,9,4,0,0,0,0,0,0],"split_type":[0,0,0,0,0,0,0,0,0,0,0,0,0,0,0],"sum_hessian":[7.464346E1,1.2000163E0,7.344345E1,5.6392775E0,6.780417E1,1.7686919E0,3.8705852E0,5.491824E0,6.2312347E1,1.4367932E0,2.433792E0,4.310785E0,1.1810391E0,2.4783897E0,5.9833958E1],"tree_param":{"num_deleted":"0","num_feature":"15","num_nodes":"15","size_leaf_vector":"1"}},{"base_weights":[3.6289343E-3,-6.542099E-2,1.2872188E-1,3.2106195E-2,-2.3879097E-1,1.8024665E-1,-1.6085068E-2,-8.6196825E-2,1.3388376E-1,-3.0952084E-1,1.2675221E-2,-3.6160105E-3,2.0695503E-1,-8.20976E-3,1.3752937E-2,1.4220543E-2,-1.963891E-2,9.275042E-3,-2.019158E-2,6.4691887E-3,1.6850675E-2],"categories":[],"categories_nodes":[],"categories_segments":[],"categories_sizes":[],"default_left":[0,0,0,0,0,0,0,0,0,0,0,0,0,0,0,0,0,0,0,0,0],"id":65,"left_children":[1,3,5,7,9,11,-1,13,15,17,-1,-1,19,-1,-1,-1,-1,-1,-1,-1,-1],"loss_changes":[6.5659356E-1,8.364105E-1,6.852088E-1,3.9984614E-1,6.9701934E-1,1.8288583E-1,0E0,4.8254377E-1,1.5170765E0,8.210894E-1,0E0,0E0,1.8613029E-1,0E0,0E0,0E0,0E0,0E0,0E0,0E0,0E0],"parents":[2147483647,0,0,1,1,2,2,3,3,4,4,5,5,7,7,8,8,9,9,12,12],"right_children":[2,4,6,8,10,12,-1,14,16,18,-1,-1,20,-1,-1,-1,-1,-1,-1,-1,-1],"split_conditions":[6.5E0,4E0,1.4E1,3E0,9E0,7E0,-1.6085068E-2,8E0,8E0,7E0,1.2675221E-2,-3.6160105E-3,9E0,-8.20976E-3,1.3752937E-2,1.4220543E-2,-1.963891E-2,9.275042E-3,-2.019158E-2,6.4691887E-3,1.6850675E-2],"split_indices":[4,4,8,4,8,8,0,8,8,8,0,0,4,0,0,0,0,0,0,0,0],"split_type":[0,0,0,0,0,0,0,0,0,0,0,0,0,0,0,0,0,0,0,0,0],"sum_hessian":[7.404029E1,4.801407E1,2.6026218E1,3.1249725E1,1.6764345E1,2.3892893E1,2.1333256E0,1.4522415E1,1.672731E1,1.4982959E1,1.7813861E0,2.1216655E0,2.1771227E1,1.2392294E1,2.1301215E0,1.3366857E1,3.3604536E0,2.2429852E0,1.2739974E1,1.4886955E1,6.884272E0],"tree_param":{"num_deleted":"0","num_feature":"15","num_nodes":"21","size_leaf_vector":"1"}},{"base_weights":[2.0139499E-2,1.5836157E-2,-8.2431035E-3,-1.2117626E-2,8.159621E-3,2.5176749E-2,-1.19550146E-1,1.8973915E-3,-9.09696E-3,-1.9595604E-2,6.126735E-4],"categories":[],"categories_nodes":[],"categories_segments":[],"categories_sizes":[],"default_left":[0,0,0,0,0,0,0,0,0,0,0],"id":66,"left_children":[1,-1,3,-1,5,7,9,-1,-1,-1,-1],"loss_changes":[6.389417E-1,0E0,2.7064788E-1,0E0,1.4720951E-1,1.6396002E-1,2.911158E-1,0E0,0E0,0E0,0E0],"parents":[2147483647,0,0,2,2,4,4,5,5,6,6],"right_children":[2,-1,4,-1,6,8,10,-1,-1,-1,-1],"split_conditions":[7E0,1.5836157E-2,7E0,-1.2117626E-2,1E1,1.1E1,1.4E1,1.8973915E-3,-9.09696E-3,-1.9595604E-2,6.126735E-4],"split_indices":[8,0,9,0,8,9,8,0,0,0,0],"split_type":[0,0,0,0,0,0,0,0,0,0,0],"sum_hessian":[7.459335E1,5.6277018E0,6.896565E1,3.613696E0,6.535196E1,5.837627E1,6.9756875E0,5.5755104E1,2.6211638E0,1.631293E0,5.3443947E0],"tree_param":{"num_deleted":"0","num_feature":"15","num_nodes":"11","size_leaf_vector":"1"}},{"base_weights":[9.3183005E-3,-1.968351E-2,2.0914098E-2,4.631841E-2,-1.328993E-2,3.999082E-1,9.99823E-3,8.293227E-3,3.165018E-2,-9.003018E-3,1.7015775E-3],"categories":[],"categories_nodes":[],"categories_segments":[],"categories_sizes":[],"default_left":[0,0,0,0,0,0,0,0,0,0,0],"id":67,"left_children":[1,-1,3,5,-1,7,9,-1,-1,-1,-1],"loss_changes":[3.6723706E-1,0E0,5.6315386E-1,8.991137E-1,0E0,2.5097E-1,3.0210593E-1,0E0,0E0,0E0,0E0],"parents":[2147483647,0,0,2,2,3,3,5,5,6,6],"right_children":[2,-1,4,6,-1,8,10,-1,-1,-1,-1],"split_conditions":[6E0,-1.968351E-2,1.05E1,7E0,-1.328993E-2,5E0,2E0,8.293227E-3,3.165018E-2,-9.003018E-3,1.7015775E-3],"split_indices":[8,0,4,8,0,4,4,0,0,0,0],"split_type":[0,0,0,0,0,0,0,0,0,0,0],"sum_hessian":[7.582557E1,1.1992338E0,7.4626335E1,6.932243E1,5.3038974E0,5.5249043E0,6.379753E1,3.6108937E0,1.9140108E0,6.4329348E0,5.7364597E1],"tree_param":{"num_deleted":"0","num_feature":"15","num_nodes":"11","size_leaf_vector":"1"}},{"base_weights":[4.42588E-2,-1.9118378E-2,5.6195788E-2,4.3714434E-1,1.9576322E-2,3.1240767E-2,-4.204128E-3,-1.908651E-1,4.165787E-2,1.5629532E-2,-1.8015279E-2,2.0546054E-2,9.199938E-4],"categories":[],"categories_nodes":[],"categories_segments":[],"categories_sizes":[],"default_left":[0,0,0,0,0,0,0,0,0,0,0,0,0],"id":68,"left_children":[1,-1,3,5,7,-1,-1,9,11,-1,-1,-1,-1],"loss_changes":[4.0959257E-1,0E0,1.0377957E0,6.91391E-1,3.3079576E-1,0E0,0E0,6.907384E-1,5.3950477E-1,0E0,0E0,0E0,0E0],"parents":[2147483647,0,0,2,2,3,3,4,4,7,7,8,8],"right_children":[2,-1,4,6,8,-1,-1,10,12,-1,-1,-1,-1],"split_conditions":[6E0,-1.9118378E-2,7E0,6.5E0,2E0,3.1240767E-2,-4.204128E-3,1E0,2.5E0,1.5629532E-2,-1.8015279E-2,2.0546054E-2,9.199938E-4],"split_indices":[8,0,8,4,4,0,0,4,4,0,0,0,0],"split_type":[0,0,0,0,0,0,0,0,0,0,0,0,0],"sum_hessian":[7.520912E1,1.2024256E0,7.400669E1,5.5309806E0,6.8475716E1,3.9206035E0,1.6103773E0,5.776918E0,6.2698795E1,1.2419354E0,4.5349827E0,2.727458E0,5.9971336E1],"tree_param":{"num_deleted":"0","num_feature":"15","num_nodes":"13","size_leaf_vector":"1"}},{"base_weights":[2.0279992E-2,2.4076912E-1,-1.4668905E-2,1.1990093E-1,2.8920343E-2,-3.6307618E-1,2.2831872E-2,-1.18065085E-2,1.6011646E-2,-3.249004E-2,-1.9484065E-2,-1.2823457E-2,5.140316E-2,9.596426E-3,-1.5628798E-2,1.974727E-2,-1.8496497E-2,4.6513937E-3,-8.846862E-3],"categories":[],"categories_nodes":[],"categories_segments":[],"categories_sizes":[],"default_left":[0,0,0,0,0,0,0,0,0,0,0,0,0,0,0,0,0,0,0],"id":69,"left_children":[1,3,5,7,-1,9,11,13,-1,-1,15,-1,17,-1,-1,-1,-1,-1,-1],"loss_changes":[5.7153875E-1,3.4456223E-1,8.5191315E-1,2.3413266E-1,0E0,6.1130637E-1,4.8587745E-1,4.418591E-1,0E0,0E0,7.1426475E-1,0E0,5.351342E-1,0E0,0E0,0E0,0E0,0E0,0E0],"parents":[2147483647,0,0,1,1,2,2,3,3,5,5,6,6,7,7,10,10,12,12],"right_children":[2,4,6,8,-1,10,12,14,-1,-1,16,-1,18,-1,-1,-1,-1,-1,-1],"split_conditions":[2.5E0,8E0,7E0,2E0,2.8920343E-2,5E0,3E0,1.5E0,1.6011646E-2,-3.249004E-2,7E0,-1.2823457E-2,8E0,9.596426E-3,-1.5628798E-2,1.974727E-2,-1.8496497E-2,4.6513937E-3,-8.846862E-3],"split_indices":[4,9,8,4,0,4,4,4,0,0,4,0,9,0,0,0,0,0,0],"split_type":[0,0,0,0,0,0,0,0,0,0,0,0,0,0,0,0,0,0,0],"sum_hessian":[7.271111E1,9.142543E0,6.356857E1,7.7303386E0,1.4122039E0,5.333642E0,5.823493E1,5.2317867E0,2.4985516E0,2.4216216E0,2.9120204E0,4.6641064E0,5.3570824E1,3.3347623E0,1.8970245E0,1.2760327E0,1.6359878E0,4.58122E1,7.7586236E0],"tree_param":{"num_deleted":"0","num_feature":"15","num_nodes":"19","size_leaf_vector":"1"}},{"base_weights":[-1.7267581E-2,-6.040418E-2,2.0107628E-1,-4.3741982E-2,-1.9616792E-2,4.52282E-1,6.51183E-2,8.702218E-2,-6.82184E-2,7.3967217E-3,3.4281977E-2,6.2335874E-3,1.0007154E-2,-7.9664105E-4,7.542395E-3,-1.10298535E-2,2.4890076E-4,5.693788E-3,-6.1585447E-3],"categories":[],"categories_nodes":[],"categories_segments":[],"categories_sizes":[],"default_left":[0,0,0,0,0,0,0,0,0,0,0,0,0,0,0,0,0,0,0],"id":70,"left_children":[1,3,5,7,-1,9,11,13,15,-1,-1,17,-1,-1,-1,-1,-1,-1,-1],"loss_changes":[7.150991E-1,3.3177644E-1,3.9895195E-1,2.0181817E-1,0E0,1.994636E-1,7.275036E-2,6.869889E-2,5.8233297E-1,0E0,0E0,1.1867468E-1,0E0,0E0,0E0,0E0,0E0,0E0,0E0],"parents":[2147483647,0,0,1,1,2,2,3,3,5,5,6,6,7,7,8,8,11,11],"right_children":[2,4,6,8,-1,10,12,14,16,-1,-1,18,-1,-1,-1,-1,-1,-1,-1],"split_conditions":[8.5E0,8E0,9.5E0,2.5E0,-1.9616792E-2,9E0,1.35E1,1.5E0,3.5E0,7.3967217E-3,3.4281977E-2,1.1E1,1.0007154E-2,-7.9664105E-4,7.542395E-3,-1.10298535E-2,2.4890076E-4,5.693788E-3,-6.1585447E-3],"split_indices":[4,4,4,4,0,4,4,4,4,0,0,4,0,0,0,0,0,0,0],"split_type":[0,0,0,0,0,0,0,0,0,0,0,0,0,0,0,0,0,0,0],"sum_hessian":[7.363448E1,6.2090973E1,1.1543508E1,6.0200813E1,1.890161E0,3.236636E0,8.306871E0,9.088825E0,5.1111988E1,2.1137705E0,1.1228654E0,6.5127907E0,1.7940807E0,3.7653854E0,5.32344E0,1.5931785E1,3.5180202E1,3.620861E0,2.8919296E0],"tree_param":{"num_deleted":"0","num_feature":"15","num_nodes":"19","size_leaf_vector":"1"}},{"base_weights":[6.678057E-4,-1.3554274E-1,7.797849E-2,-8.895934E-2,-2.6327431E-2,3.2240365E-2,4.3699127E-1,1.4937237E-2,-1.2055767E-1,6.2595576E-2,-2.1426871E-2,3.717995E-2,-2.2117614E-3,-1.2828134E-2,1.9656725E-3,1.7802367E-2,9.93557E-4],"categories":[],"categories_nodes":[],"categories_segments":[],"categories_sizes":[],"default_left":[0,0,0,0,0,0,0,0,0,0,0,0,0,0,0,0,0],"id":71,"left_children":[1,3,5,7,-1,9,11,-1,13,15,-1,-1,-1,-1,-1,-1,-1],"loss_changes":[8.058975E-1,4.5790184E-1,7.874761E-1,3.5410264E-1,0E0,6.475417E-1,8.3504534E-1,0E0,5.47588E-1,5.258692E-1,0E0,0E0,0E0,0E0,0E0,0E0,0E0],"parents":[2147483647,0,0,1,1,2,2,3,3,5,5,6,6,8,8,9,9],"right_children":[2,4,6,8,-1,10,12,-1,14,16,-1,-1,-1,-1,-1,-1,-1],"split_conditions":[3.5E0,1.1E1,1.1E1,1E0,-2.6327431E-2,1.1E1,7E0,1.4937237E-2,3E0,4E0,-2.1426871E-2,3.717995E-2,-2.2117614E-3,-1.2828134E-2,1.9656725E-3,1.7802367E-2,9.93557E-4],"split_indices":[4,8,8,4,0,9,4,0,4,4,0,0,0,0,0,0,0],"split_type":[0,0,0,